{"learner":{"attributes":{"best_iteration":"10","best_score":"0.6809530137701237","scikit_learn":"{\"_estimator_type\": \"classifier\"}"},"feature_names":[],"feature_types":[],"gradient_booster":{"model":{"cats":{"enc":[],"feature_segments":[],"sorted_idx":[]},"gbtree_model_param":{"num_parallel_tree":"1","num_trees":"31"},"iteration_indptr":[0,1,2,3,4,5,6,7,8,9,10,11,12,13,14,15,16,17,18,19,20,21,22,23,24,25,26,27,28,29,30,31],"tree_info":[0,0,0,0,0,0,0,0,0,0,0,0,0,0,0,0,0,0,0,0,0,0,0,0,0,0,0,0,0,0,0],"trees":[{"base_weights":[3.1110947E-3,-6.836007E-1,1.22649275E-1,2.623337E-2,-9.724908E-1,2.2494826E-1,-4.0056854E-1,-9.5394984E-2,-1.8992023E-1,4.3914086E-1,3.0404208E-2,-5.9685034E-1,4.0227145E-2,-0E0,-3.4566768E-2,5.070399E-1,-1.5319331E-2,-3.6694255E-2,8.356994E-2,-8.0494463E-1,9.552946E-4,2.5486149E-2,8.3729714E-2,4.1106112E-2,-2.516502E-3,-6.614147E-3,-7.404709E-2],"categories":[],"categories_nodes":[],"categories_segments":[],"categories_sizes":[],"default_left":[0,0,0,0,0,0,0,0,0,0,0,0,0,0,0,0,0,0,0,0,0,0,0,0,0,0,0],"id":0,"left_children":[1,3,5,-1,7,9,11,-1,13,15,17,19,-1,-1,-1,21,-1,-1,23,25,-1,-1,-1,-1,-1,-1,-1],"loss_changes":[1.8212238E1,1.0828648E1,1.0494568E1,0E0,2.7577114E0,6.454771E0,6.221817E0,0E0,7.8525054E-1,3.7983065E0,2.0940523E0,4.2875223E0,0E0,0E0,0E0,5.22011E0,0E0,0E0,4.796893E0,7.2935486E-1,0E0,0E0,0E0,0E0,0E0,0E0,0E0],"parents":[2147483647,0,0,1,1,2,2,4,4,5,5,6,6,8,8,9,9,10,10,11,11,15,15,18,18,19,19],"right_children":[2,4,6,-1,8,10,12,-1,14,16,18,20,-1,-1,-1,22,-1,-1,24,26,-1,-1,-1,-1,-1,-1,-1],"split_conditions":[1.68E0,2.05E0,6.51E0,2.623337E-2,1.6154197E0,1.79E0,2.03E0,-9.5394984E-2,1.6502434E3,5.976346E-1,7.7246785E-1,1.198E1,4.0227145E-2,-0E0,-3.4566768E-2,4.526263E-1,-1.5319331E-2,-3.6694255E-2,2.9114145E-1,1.5874552E3,9.552946E-4,2.5486149E-2,8.3729714E-2,4.1106112E-2,-2.516502E-3,-6.614147E-3,-7.404709E-2],"split_indices":[15,9,9,0,5,16,16,0,3,2,5,9,0,0,0,2,0,0,10,3,0,0,0,0,0,0,0],"split_type":[0,0,0,0,0,0,0,0,0,0,0,0,0,0,0,0,0,0,0,0,0,0,0,0,0,0,0],"sum_hessian":[2.2465236E2,3.0668413E1,1.9398395E2,5.9840803E0,2.4684332E1,1.6481155E2,2.9172392E1,1.7453568E1,7.230764E0,7.480101E1,9.0010544E1,2.5432343E1,3.7400503E0,3.2413769E0,3.989387E0,6.93156E1,5.4854074E0,5.4854074E0,8.452514E1,1.96976E1,5.734744E0,5.510341E1,1.4212192E1,1.8201578E1,6.632356E1,4.4880605E0,1.5209538E1],"tree_param":{"num_deleted":"0","num_feature":"18","num_nodes":"27","size_leaf_vector":"1"}},{"base_weights":[-6.2490918E-2,4.592556E-2,-5.1118034E-1,-4.7019508E-1,1.2531091E-1,2.0509027E-1,-7.336914E-1,-7.687031E-1,1.6475186E-2,-4.2299546E-2,2.9295957E-1,5.206086E-2,-2.5192192E-2,-4.019746E-1,-1.0126368E0,-7.293765E-2,-1.0166481E-2,1.0913212E-1,-7.206189E-1,4.3234387E-1,4.3674044E-2,-5.390706E-1,-0E0,-9.299379E-2,-8.194444E-3,1.7899211E-2,-4.4615753E-2,-7.275947E-2,-0E0,4.4136733E-2,-0E0,-1.7816002E-2,4.6388317E-2,-6.494421E-2,-0E0],"categories":[],"categories_nodes":[],"categories_segments":[],"categories_sizes":[],"default_left":[0,0,0,0,0,0,0,0,0,0,0,0,0,0,0,0,0,0,0,0,0,0,0,0,0,0,0,0,0,0,0,0,0,0,0],"id":1,"left_children":[1,3,5,7,9,11,13,15,-1,17,19,-1,-1,21,23,-1,-1,25,27,29,31,33,-1,-1,-1,-1,-1,-1,-1,-1,-1,-1,-1,-1,-1],"loss_changes":[1.1339313E1,7.119249E0,8.045218E0,5.449535E0,4.7335978E0,3.3479178E0,1.1065712E0,3.0385017E-1,0E0,8.791277E0,2.3546643E0,0E0,0E0,1.6772399E0,7.637253E-1,0E0,0E0,4.835738E0,1.5385904E0,2.3210087E0,5.528992E0,2.0862207E0,0E0,0E0,0E0,0E0,0E0,0E0,0E0,0E0,0E0,0E0,0E0,0E0,0E0],"parents":[2147483647,0,0,1,1,2,2,3,3,4,4,5,5,6,6,7,7,9,9,10,10,13,13,14,14,17,17,18,18,19,19,20,20,21,21],"right_children":[2,4,6,8,10,12,14,16,-1,18,20,-1,-1,22,24,-1,-1,26,28,30,32,34,-1,-1,-1,-1,-1,-1,-1,-1,-1,-1,-1,-1,-1],"split_conditions":[2.17E0,1.4677078E-1,2.7508265E-1,1.198E1,-1.94515E1,5.7747E-1,2.33E0,1.39E0,1.6475186E-2,1.5234227E3,1.88E0,5.206086E-2,-2.5192192E-2,1.6446199E3,4.8734468E-1,-7.293765E-2,-1.0166481E-2,1.508609E-1,1.6020885E3,1.5200647E3,2.638336E-1,2.28E0,-0E0,-9.299379E-2,-8.194444E-3,1.7899211E-2,-4.4615753E-2,-7.275947E-2,-0E0,4.4136733E-2,-0E0,-1.7816002E-2,4.6388317E-2,-6.494421E-2,-0E0],"split_indices":[16,2,10,9,13,2,16,7,0,3,16,0,0,3,0,0,0,14,3,4,12,16,0,0,0,0,0,0,0,0,0,0,0,0,0],"split_type":[0,0,0,0,0,0,0,0,0,0,0,0,0,0,0,0,0,0,0,0,0,0,0,0,0,0,0,0,0,0,0,0,0,0,0],"sum_hessian":[2.2057236E2,1.7729845E2,4.327391E1,2.064342E1,1.5665501E2,9.228733E0,3.4045177E1,1.5156936E1,5.486484E0,7.610144E1,8.055358E1,5.734233E0,3.4945006E0,1.9419224E1,1.4625953E1,1.0431321E1,4.7256145E0,6.23795E1,1.3721938E1,4.8150703E1,3.2402878E1,1.56816435E1,3.7375808E0,1.1139898E1,3.486055E0,5.5644455E1,6.735045E0,9.730075E0,3.9918642E0,3.6422775E1,1.172793E1,2.1183289E1,1.1219591E1,8.962364E0,6.71928E0],"tree_param":{"num_deleted":"0","num_feature":"18","num_nodes":"35","size_leaf_vector":"1"}},{"base_weights":[1.6973916E-3,-5.0289506E-1,1.3594635E-1,4.2327385E-2,-8.29726E-1,-4.343483E-1,2.183131E-1,3.4872735E-1,-3.3882845E-2,-0E0,-9.3227875E-1,-6.283243E-1,-0E0,1.0661623E-3,3.586271E-1,-0E0,5.271566E-2,-8.240839E-2,-9.313184E-3,-0E0,-6.7930855E-2,-2.0105673E-1,1.5634705E-1,4.705585E-1,-4.2400084E-2,1.9638665E-2,-5.265734E-2,-9.4895E-3,3.009088E-2,1.2873136E-2,5.0674412E-2,2.803354E-2,-3.439471E-2],"categories":[],"categories_nodes":[],"categories_segments":[],"categories_sizes":[],"default_left":[0,0,0,0,0,0,0,0,0,0,0,0,0,0,0,0,0,0,0,0,0,0,0,0,0,0,0,0,0,0,0,0,0],"id":2,"left_children":[1,3,5,7,9,11,13,15,-1,-1,17,19,-1,21,23,-1,-1,-1,-1,-1,-1,25,27,29,31,-1,-1,-1,-1,-1,-1,-1,-1],"loss_changes":[1.4915687E1,9.027102E0,8.416592E0,2.7811122E0,2.6081944E0,2.4288836E0,4.5143414E0,2.0758846E0,0E0,0E0,7.438679E-1,2.198679E0,0E0,2.138534E0,4.7037086E0,0E0,0E0,0E0,0E0,0E0,0E0,6.335251E0,2.8928175E0,2.8288937E0,3.4978387E0,0E0,0E0,0E0,0E0,0E0,0E0,0E0,0E0],"parents":[2147483647,0,0,1,1,2,2,3,3,4,4,5,5,6,6,7,7,10,10,11,11,13,13,14,14,21,21,22,22,23,23,24,24],"right_children":[2,4,6,8,10,12,14,16,-1,-1,18,20,-1,22,24,-1,-1,-1,-1,-1,-1,26,28,30,32,-1,-1,-1,-1,-1,-1,-1,-1],"split_conditions":[1.74E0,2.402399E-1,1.44E0,1.6215463E3,9.969109E-1,1.198E1,2.02E0,2.25E0,-3.3882845E-2,-0E0,1.5823157E3,1.97E0,-0E0,1.99E0,2.4E0,-0E0,5.271566E-2,-8.240839E-2,-9.313184E-3,-0E0,-6.7930855E-2,2.86E0,3E0,2.23E0,2.970687E-1,1.9638665E-2,-5.265734E-2,-9.4895E-3,3.009088E-2,1.2873136E-2,5.0674412E-2,2.803354E-2,-3.439471E-2],"split_indices":[15,1,7,3,5,9,15,16,0,0,3,15,0,16,15,0,0,0,0,0,0,9,9,7,2,0,0,0,0,0,0,0,0],"split_type":[0,0,0,0,0,0,0,0,0,0,0,0,0,0,0,0,0,0,0,0,0,0,0,0,0,0,0,0,0,0,0,0,0],"sum_hessian":[2.215854E2,4.3845497E1,1.7773991E2,1.5938325E1,2.7907171E1,1.9820225E1,1.579197E2,1.1212952E1,4.7253737E0,3.216941E0,2.469023E1,1.4579524E1,5.2407007E0,6.555835E1,9.2361336E1,4.7315116E0,6.48144E0,2.0483297E1,4.206932E0,4.4522686E0,1.0127255E1,2.542896E1,4.012939E1,7.388578E1,1.8475557E1,1.2225801E1,1.320316E1,1.6214775E1,2.3914614E1,2.8954523E1,4.493126E1,7.9888606E0,1.0486697E1],"tree_param":{"num_deleted":"0","num_feature":"18","num_nodes":"33","size_leaf_vector":"1"}},{"base_weights":[-3.596543E-2,-5.395325E-1,8.930178E-2,8.358036E-2,-6.811523E-1,3.0327508E-1,-1.826448E-2,-2.2598268E-2,5.2809026E-2,-8.7221617E-1,-9.72062E-2,-2.1206887E-1,4.480785E-1,-5.8989562E-2,8.846234E-3,-9.007342E-2,-3.972401E-1,1.4418471E-2,-3.440379E-1,-5.304482E-1,1.1105506E-2,5.696238E-1,-6.731538E-2,8.004308E-2,-4.4162658E-1,-0E0,-5.275127E-2,-0E0,-5.0243497E-2,-0E0,-6.93384E-2,2.4178939E-2,8.366486E-2,-2.8526323E-2,1.2239219E-2,1.0719661E-2,-3.289449E-2,2.6977275E-2,-6.566095E-2],"categories":[],"categories_nodes":[],"categories_segments":[],"categories_sizes":[],"default_left":[0,0,0,0,0,0,0,0,0,0,0,0,0,0,0,0,0,0,0,0,0,0,0,0,0,0,0,0,0,0,0,0,0,0,0,0,0,0,0],"id":3,"left_children":[1,3,5,7,9,11,13,-1,-1,15,17,19,21,-1,23,-1,25,-1,27,29,-1,31,33,35,37,-1,-1,-1,-1,-1,-1,-1,-1,-1,-1,-1,-1,-1,-1],"loss_changes":[1.4945884E1,4.8895416E0,4.506279E0,2.7010083E0,3.3355427E0,5.2331185E0,3.0908601E0,0E0,0E0,1.0379124E0,1.2073883E0,2.0998654E0,3.864335E0,0E0,3.453957E0,0E0,1.9748721E0,0E0,1.3080716E0,1.5296297E0,0E0,3.6499357E0,9.643941E-1,2.6008904E0,5.26725E0,0E0,0E0,0E0,0E0,0E0,0E0,0E0,0E0,0E0,0E0,0E0,0E0,0E0,0E0],"parents":[2147483647,0,0,1,1,2,2,3,3,4,4,5,5,6,6,9,9,10,10,11,11,12,12,14,14,16,16,18,18,19,19,21,21,22,22,23,23,24,24],"right_children":[2,4,6,8,10,12,14,-1,-1,16,18,20,22,-1,24,-1,26,-1,28,30,-1,32,34,36,38,-1,-1,-1,-1,-1,-1,-1,-1,-1,-1,-1,-1,-1,-1],"split_conditions":[1.74E0,2.2423384E-1,1.1687615E0,-8.587615E-1,1.6279896E0,1.89E0,3.2898352E-1,-2.2598268E-2,5.2809026E-2,2.6552358E-1,5.871021E-1,1.0212889E0,2.4E0,-5.8989562E-2,5.47E0,-9.007342E-2,3.16561E-1,1.4418471E-2,7.899287E-1,1.8015215E-1,1.1105506E-2,2.24E0,2.912696E-1,2.8122392E-1,1.4921078E-1,-0E0,-5.275127E-2,-0E0,-5.0243497E-2,-0E0,-6.93384E-2,2.4178939E-2,8.366486E-2,-2.8526323E-2,1.2239219E-2,1.0719661E-2,-3.289449E-2,2.6977275E-2,-6.566095E-2],"split_indices":[15,0,5,14,5,15,0,0,0,1,0,5,15,0,8,0,11,0,6,0,0,15,0,1,11,0,0,0,0,0,0,0,0,0,0,0,0,0,0],"split_type":[0,0,0,0,0,0,0,0,0,0,0,0,0,0,0,0,0,0,0,0,0,0,0,0,0,0,0,0,0,0,0,0,0,0,0,0,0,0,0],"sum_hessian":[2.2626868E2,4.534663E1,1.8092204E2,7.241824E0,3.8104805E1,6.2417484E1,1.1850456E2,3.9924574E0,3.2493668E0,2.6676577E1,1.142823E1,1.1972683E1,5.04448E1,3.7418475E0,1.1476271E2,1.4229683E1,1.2446893E1,3.7271934E0,7.701037E0,7.2347E0,4.737983E0,4.221829E1,8.226514E0,1.02437126E2,1.2325585E1,4.6616497E0,7.7852435E0,3.4736931E0,4.2273436E0,3.7395852E0,3.495115E0,3.04753E1,1.1742987E1,4.98421E0,3.242304E0,9.544435E1,6.9927773E0,3.2443666E0,9.081219E0],"tree_param":{"num_deleted":"0","num_feature":"18","num_nodes":"39","size_leaf_vector":"1"}},{"base_weights":[-4.252751E-2,-1.5944594E-1,1.7969617E-1,-2.675936E-1,1.5825425E-1,-1.8426715E-1,3.3788052E-1,-5.8437383E-1,-1.1141056E-1,-1.0272046E-1,5.382468E-1,-4.2946556E-1,2.2530058E-2,5.6187533E-2,6.0351866E-1,-6.683173E-1,-3.163355E-2,-2.3504464E-1,2.3442352E-1,9.684565E-2,-5.8880895E-2,5.4756146E-2,-0E0,-4.980931E-2,-0E0,-4.687643E-2,2.8182548E-1,-0E0,7.3960006E-1,-8.507003E-2,-2.7156865E-2,3.2264687E-2,-5.2450106E-2,-4.1196283E-2,-4.034222E-5,4.7638092E-2,-1.989374E-2,5.645274E-2,-9.23866E-3,3.903232E-2,-5.159033E-2,-1.13445055E-2,3.9108533E-2,-0E0,6.747269E-2],"categories":[],"categories_nodes":[],"categories_segments":[],"categories_sizes":[],"default_left":[0,0,0,0,0,0,0,0,0,0,0,0,0,0,0,0,0,0,0,0,0,0,0,0,0,0,0,0,0,0,0,0,0,0,0,0,0,0,0,0,0,0,0,0,0],"id":4,"left_children":[1,3,5,7,9,11,13,15,17,19,21,23,-1,25,27,29,31,33,35,37,-1,-1,-1,-1,39,-1,41,-1,43,-1,-1,-1,-1,-1,-1,-1,-1,-1,-1,-1,-1,-1,-1,-1,-1],"loss_changes":[5.842238E0,5.361964E0,4.5972166E0,4.8787994E0,4.225933E0,2.9150362E0,3.3815184E0,9.0450287E-1,3.6089387E0,3.5770538E0,1.5167236E0,8.7154603E-1,0E0,4.4719224E0,1.6503296E0,1.6612082E0,3.0471613E0,3.6460438E0,4.204141E0,3.0004716E0,0E0,0E0,0E0,0E0,3.431745E0,0E0,2.696568E0,0E0,1.0554895E0,0E0,0E0,0E0,0E0,0E0,0E0,0E0,0E0,0E0,0E0,0E0,0E0,0E0,0E0,0E0,0E0],"parents":[2147483647,0,0,1,1,2,2,3,3,4,4,5,5,6,6,7,7,8,8,9,9,10,10,11,11,13,13,14,14,15,15,16,16,17,17,18,18,19,19,24,24,26,26,28,28],"right_children":[2,4,6,8,10,12,14,16,18,20,22,24,-1,26,28,30,32,34,36,38,-1,-1,-1,-1,40,-1,42,-1,44,-1,-1,-1,-1,-1,-1,-1,-1,-1,-1,-1,-1,-1,-1,-1,-1],"split_conditions":[2.16E0,3.34E0,9.564128E-1,1.2681824E0,1.88E0,2.004732E2,-2.94794E1,3.58E0,2.7392197E-1,5.42E0,4.32E0,1.63E0,2.2530058E-2,1.6E0,2.4438976E-1,2.815098E-1,3.67E0,1.99E0,2.6721403E-1,9.0174365E-1,-5.8880895E-2,5.4756146E-2,-0E0,-4.980931E-2,2.639843E-1,-4.687643E-2,3.627557E-1,-0E0,1.007392E0,-8.507003E-2,-2.7156865E-2,3.2264687E-2,-5.2450106E-2,-4.1196283E-2,-4.034222E-5,4.7638092E-2,-1.989374E-2,5.645274E-2,-9.23866E-3,3.903232E-2,-5.159033E-2,-1.13445055E-2,3.9108533E-2,-0E0,6.747269E-2],"split_indices":[15,7,6,5,15,13,13,8,11,7,8,7,0,16,1,11,8,16,1,5,0,0,0,0,1,0,2,0,6,0,0,0,0,0,0,0,0,0,0,0,0,0,0,0,0],"split_type":[0,0,0,0,0,0,0,0,0,0,0,0,0,0,0,0,0,0,0,0,0,0,0,0,0,0,0,0,0,0,0,0,0,0,0,0,0,0,0,0,0,0,0,0,0],"sum_hessian":[2.2143066E2,1.4841182E2,7.301886E1,1.1330496E2,3.510685E1,2.010595E1,5.291291E1,3.3490826E1,7.981413E1,2.0117855E1,1.49889965E1,1.4681762E1,5.4241867E0,2.868344E1,2.422947E1,2.7141537E1,6.349291E0,6.139719E1,1.8416943E1,1.5384807E1,4.7330484E0,1.1743765E1,3.2452319E0,8.185293E0,6.496469E0,5.4753885E0,2.320805E1,5.747118E0,1.8482351E1,8.919053E0,1.8222483E1,3.213871E0,3.13542E0,2.4957355E1,3.6439835E1,1.1458154E1,6.95879E0,3.9944081E0,1.1390399E1,3.2492328E0,3.247236E0,6.239846E0,1.6968204E1,3.2479262E0,1.5234426E1],"tree_param":{"num_deleted":"0","num_feature":"18","num_nodes":"45","size_leaf_vector":"1"}},{"base_weights":[-5.122481E-3,-1.938403E-1,2.0094943E-1,2.545099E-1,-3.0139157E-1,-2.3039773E-1,3.2767186E-1,-2.403214E-2,5.1626617E-1,-6.123132E-1,-1.7520401E-1,-4.6158585E-1,3.650919E-2,6.88282E-2,2.20344E-1,6.216654E-1,-0E0,-0E0,-8.965329E-1,-4.0422836E-1,5.1161435E-2,-0E0,-8.739386E-1,3.328764E-1,-2.26484E-1,6.280402E-2,2.4678234E-3,-2.4138132E-2,2.1643583E-2,-0E0,-8.593075E-2,-4.795672E-2,7.0720348E-3,-1.55829E-2,4.5203626E-2,2.9423723E-2,-1.7099762E-2,-9.5434934E-2,-1.0719781E-2,3.491473E-2,-1.4163148E-2,4.580888E-3,-3.2302618E-2],"categories":[],"categories_nodes":[],"categories_segments":[],"categories_sizes":[],"default_left":[0,0,0,0,0,0,0,0,0,0,0,0,0,0,0,0,0,0,0,0,0,0,0,0,0,0,0,0,0,0,0,0,0,0,0,0,0,0,0,0,0,0,0],"id":5,"left_children":[1,3,5,7,9,11,13,-1,15,17,19,21,-1,-1,23,25,-1,27,29,31,33,35,37,39,41,-1,-1,-1,-1,-1,-1,-1,-1,-1,-1,-1,-1,-1,-1,-1,-1,-1,-1],"loss_changes":[9.006119E0,6.1546783E0,6.1670055E0,3.8923535E0,3.0118542E0,4.232257E0,3.4746418E0,0E0,7.7723074E-1,4.169775E0,4.4310036E0,4.6536794E0,0E0,0E0,4.083045E0,5.0865793E-1,0E0,1.0698495E0,2.290308E0,4.5721884E0,5.4863377E0,1.11883E0,1.1095839E0,3.760624E0,1.1327755E0,0E0,0E0,0E0,0E0,0E0,0E0,0E0,0E0,0E0,0E0,0E0,0E0,0E0,0E0,0E0,0E0,0E0,0E0],"parents":[2147483647,0,0,1,1,2,2,3,3,4,4,5,5,6,6,8,8,9,9,10,10,11,11,14,14,15,15,17,17,18,18,19,19,20,20,21,21,22,22,23,23,24,24],"right_children":[2,4,6,8,10,12,14,-1,16,18,20,22,-1,-1,24,26,-1,28,30,32,34,36,38,40,42,-1,-1,-1,-1,-1,-1,-1,-1,-1,-1,-1,-1,-1,-1,-1,-1,-1,-1],"split_conditions":[2.02E0,2.07E0,2.1711761E-1,1.51E0,1.68E0,2.51E0,2.451442E-1,-2.403214E-2,1.6556637E3,2.4678494E-1,2.01E0,1.8545112E-1,3.650919E-2,6.88282E-2,1.6158472E3,2.4573351E-1,-0E0,1.63E0,1.427119E3,2.6826638E-1,1.5392605E3,1.6372784E3,1.9378184E0,8.94032E1,-1.70794E2,6.280402E-2,2.4678234E-3,-2.4138132E-2,2.1643583E-2,-0E0,-8.593075E-2,-4.795672E-2,7.0720348E-3,-1.55829E-2,4.5203626E-2,2.9423723E-2,-1.7099762E-2,-9.5434934E-2,-1.0719781E-2,3.491473E-2,-1.4163148E-2,4.580888E-3,-3.2302618E-2],"split_indices":[15,9,11,9,15,15,11,0,4,1,16,11,0,0,4,1,0,15,3,1,4,3,5,13,13,0,0,0,0,0,0,0,0,0,0,0,0,0,0,0,0,0,0],"split_type":[0,0,0,0,0,0,0,0,0,0,0,0,0,0,0,0,0,0,0,0,0,0,0,0,0,0,0,0,0,0,0,0,0,0,0,0,0,0,0,0,0,0,0],"sum_hessian":[2.277622E2,1.2148203E2,1.06280174E2,2.117575E1,1.0030628E2,2.1969894E1,8.431028E1,5.4680657E0,1.57076845E1,2.4445045E1,7.586124E1,1.8016714E1,3.9531808E0,1.0222974E1,7.408731E1,1.2223361E1,3.4843233E0,8.921715E0,1.5523331E1,3.9123928E1,3.673731E1,8.339789E0,9.676925E0,6.137758E1,1.2709731E1,7.7344112E0,4.4889503E0,4.951789E0,3.969926E0,3.3306096E0,1.2192721E1,2.9162807E1,9.96112E0,2.4369753E1,1.23675585E1,4.1957126E0,4.1440763E0,4.9619145E0,4.7150106E0,5.288633E1,8.491248E0,3.2393758E0,9.470355E0],"tree_param":{"num_deleted":"0","num_feature":"18","num_nodes":"43","size_leaf_vector":"1"}},{"base_weights":[8.302889E-3,1.4084303E-1,-5.019145E-1,-1.1913058E-2,2.7088493E-1,-0E0,-6.4821935E-1,1.6145164E-1,-3.4588635E-1,2.2648614E-2,5.5099595E-1,1.2844108E-2,-1.1050317E-3,-7.4362665E-1,-0E0,-4.602797E-1,3.0639577E-1,-5.84913E-1,-2.7005158E-3,-2.432234E-1,1.3760138E-1,9.4585913E-1,2.6740646E-1,-7.634787E-2,-2.0192908E-1,-0E0,-6.664548E-2,-2.559827E-2,3.3918705E-2,-0E0,-5.754916E-2,-3.2932885E-2,2.9727343E-2,2.1620052E-2,-4.3078985E-2,-1.0139016E-2,2.7226895E-2,1.6022043E-2,8.837921E-2,6.9131196E-2,2.9772373E-3,5.3886455E-3,-5.092489E-2],"categories":[],"categories_nodes":[],"categories_segments":[],"categories_sizes":[],"default_left":[0,0,0,0,0,0,0,0,0,0,0,0,0,0,0,0,0,0,0,0,0,0,0,0,0,0,0,0,0,0,0,0,0,0,0,0,0,0,0,0,0,0,0],"id":6,"left_children":[1,3,5,7,9,11,13,15,17,19,21,-1,-1,23,-1,25,27,29,31,33,35,37,39,-1,41,-1,-1,-1,-1,-1,-1,-1,-1,-1,-1,-1,-1,-1,-1,-1,-1,-1,-1],"loss_changes":[1.4844785E1,3.8400562E0,3.7523785E0,4.993333E0,6.411893E0,1.3328548E-1,2.278243E0,4.8860846E0,1.8972099E0,1.7165434E0,3.3637304E0,0E0,0E0,2.0337715E0,0E0,2.3233807E0,3.7134056E0,1.159111E0,2.8225088E0,2.8989806E0,2.6577587E0,2.3204899E-1,3.2486258E0,0E0,2.134138E0,0E0,0E0,0E0,0E0,0E0,0E0,0E0,0E0,0E0,0E0,0E0,0E0,0E0,0E0,0E0,0E0,0E0,0E0],"parents":[2147483647,0,0,1,1,2,2,3,3,4,4,5,5,6,6,7,7,8,8,9,9,10,10,13,13,15,15,16,16,17,17,18,18,19,19,20,20,21,21,22,22,24,24],"right_children":[2,4,6,8,10,12,14,16,18,20,22,-1,-1,24,-1,26,28,30,32,34,36,38,40,-1,42,-1,-1,-1,-1,-1,-1,-1,-1,-1,-1,-1,-1,-1,-1,-1,-1,-1,-1],"split_conditions":[2.17E0,-1.79109E1,1.4322299E3,1.91E0,2.6652044E-1,3.59049E-1,5.005538E-1,2.8728995E-1,3.59E0,1.534534E3,2.6552358E-1,1.2844108E-2,-1.1050317E-3,1.5961486E3,-0E0,1.0488434E0,1.59E0,2.620146E-1,-1.452767E2,1.68E0,1.9293536E-1,2.560826E-1,1.63E0,-7.634787E-2,1.706503E2,-0E0,-6.664548E-2,-2.559827E-2,3.3918705E-2,-0E0,-5.754916E-2,-3.2932885E-2,2.9727343E-2,2.1620052E-2,-4.3078985E-2,-1.0139016E-2,2.7226895E-2,1.6022043E-2,8.837921E-2,6.9131196E-2,2.9772373E-3,5.3886455E-3,-5.092489E-2],"split_indices":[16,13,3,16,11,12,12,12,8,3,1,0,0,3,0,6,16,1,13,16,11,1,16,0,13,0,0,0,0,0,0,0,0,0,0,0,0,0,0,0,0,0,0],"split_type":[0,0,0,0,0,0,0,0,0,0,0,0,0,0,0,0,0,0,0,0,0,0,0,0,0,0,0,0,0,0,0,0,0,0,0,0,0,0,0,0,0,0,0],"sum_hessian":[2.2076721E2,1.7794893E2,4.2818275E1,7.912742E1,9.882151E1,9.017862E0,3.3800415E1,5.079747E1,2.8329945E1,5.5430416E1,4.3391098E1,3.1122496E0,5.9056125E0,2.9323267E1,4.4771476E0,7.476598E0,4.3320873E1,1.4151158E1,1.4178787E1,1.3432261E1,4.1998154E1,1.4711002E1,2.8680094E1,1.8685116E1,1.0638152E1,3.2358937E0,4.240704E0,4.958904E0,3.836197E1,3.2333083E0,1.091785E1,7.9569116E0,6.2218757E0,3.7293766E0,9.702885E0,1.6413855E1,2.5584301E1,4.4839926E0,1.0227011E1,5.241109E0,2.3438984E1,6.191378E0,4.446774E0],"tree_param":{"num_deleted":"0","num_feature":"18","num_nodes":"43","size_leaf_vector":"1"}},{"base_weights":[-0E0,-8.029028E-2,2.933102E-1,-3.7185461E-3,-4.4941968E-1,-4.229801E-1,4.9945396E-1,-1.5924636E-1,3.059654E-1,-0E0,-6.276078E-1,-0E0,-4.7168788E-2,2.2494817E-1,8.165212E-1,-0E0,-4.6702686E-1,4.3003294E-1,-1.4924347E-1,-4.765959E-3,1.7618282E-2,-7.734021E-1,-0E0,-2.2352165E-1,4.4865188E-1,8.634804E-2,1.3814723E-2,1.2087319E-2,-2.6446108E-2,-7.795058E-2,-2.0460201E-2,-0E0,5.0669458E-2,6.7366045E-3,-3.439896E-2,-3.5278988E-3,-7.5507216E-2,5.906495E-3,-5.010383E-2,4.5400437E-2,-0E0],"categories":[],"categories_nodes":[],"categories_segments":[],"categories_sizes":[],"default_left":[0,0,0,0,0,0,0,0,0,0,0,0,0,0,0,0,0,0,0,0,0,0,0,0,0,0,0,0,0,0,0,0,0,0,0,0,0,0,0,0,0],"id":7,"left_children":[1,3,5,7,9,11,13,15,17,19,21,-1,-1,23,25,27,29,31,33,-1,-1,35,-1,37,39,-1,-1,-1,-1,-1,-1,-1,-1,-1,-1,-1,-1,-1,-1,-1,-1],"loss_changes":[5.347823E0,4.561903E0,7.7132287E0,7.2382903E0,2.7785254E0,7.209914E-1,2.0674381E0,4.777483E0,3.183227E0,2.727643E-1,1.7438078E0,0E0,0E0,3.0198581E0,1.0966406E0,3.831019E0,1.9177923E0,3.8366895E0,1.0918529E0,0E0,0E0,1.0540199E0,0E0,1.6573156E0,1.2233255E0,0E0,0E0,0E0,0E0,0E0,0E0,0E0,0E0,0E0,0E0,0E0,0E0,0E0,0E0,0E0,0E0],"parents":[2147483647,0,0,1,1,2,2,3,3,4,4,5,5,6,6,7,7,8,8,9,9,10,10,13,13,14,14,15,15,16,16,17,17,18,18,21,21,23,23,24,24],"right_children":[2,4,6,8,10,12,14,16,18,20,22,-1,-1,24,26,28,30,32,34,-1,-1,36,-1,38,40,-1,-1,-1,-1,-1,-1,-1,-1,-1,-1,-1,-1,-1,-1,-1,-1],"split_conditions":[3.45E0,4.0032634E-1,2.1711761E-1,3.1263348E-1,1.75E0,7.1432185E-1,9.4947016E-1,2.5368676E-1,2.2E0,4.3125728E-1,1.5666985E3,-0E0,-4.7168788E-2,4.4E0,2.01E0,6.8629724E-1,-2.34078E1,2.37E0,3.16561E-1,-4.765959E-3,1.7618282E-2,1.3602607E0,-0E0,1.5882413E3,1.6751815E3,8.634804E-2,1.3814723E-2,1.2087319E-2,-2.6446108E-2,-7.795058E-2,-2.0460201E-2,-0E0,5.0669458E-2,6.7366045E-3,-3.439896E-2,-3.5278988E-3,-7.5507216E-2,5.906495E-3,-5.010383E-2,4.5400437E-2,-0E0],"split_indices":[7,2,11,2,16,5,5,2,16,2,3,0,0,7,16,10,13,7,11,0,0,6,0,4,4,0,0,0,0,0,0,0,0,0,0,0,0,0,0,0,0],"split_type":[0,0,0,0,0,0,0,0,0,0,0,0,0,0,0,0,0,0,0,0,0,0,0,0,0,0,0,0,0,0,0,0,0,0,0,0,0,0,0,0,0],"sum_hessian":[2.2240584E2,1.7554836E2,4.6857487E1,1.4930577E2,2.6242575E1,8.917392E0,3.7940094E1,1.02186745E2,4.7119026E1,6.7064304E0,1.9536144E1,3.2248158E0,5.692576E0,2.3857735E1,1.4082361E1,7.01697E1,3.2017048E1,3.884044E1,8.278587E0,3.4837787E0,3.2226515E0,1.5097217E1,4.4389286E0,6.4528403E0,1.7404894E1,7.9364576E0,6.145903E0,4.7441257E1,2.2728441E1,5.897562E0,2.6119486E1,1.2449331E1,2.639111E1,3.339654E0,4.938934E0,4.448183E0,1.0649034E1,3.2236066E0,3.2292335E0,1.3926439E1,3.4784555E0],"tree_param":{"num_deleted":"0","num_feature":"18","num_nodes":"41","size_leaf_vector":"1"}},{"base_weights":[-2.6527878E-2,4.252946E-2,-3.5625225E-1,3.180434E-1,-1.1912125E-1,-4.8438796E-1,8.759671E-2,5.366902E-1,-0E0,2.7419242E-1,-2.6071492E-1,6.395156E-3,-5.973891E-1,2.2680342E-2,-0E0,1.633333E-1,6.401726E-2,-5.3126782E-2,1.475238E-1,5.6019254E-2,-1.19457275E-1,-6.000983E-1,-5.8763403E-2,-0E0,-7.1636426E-1,4.3730315E-2,-5.966189E-3,2.2968104E-2,-2.6887873E-2,8.350072E-3,-2.843081E-2,-0E0,-6.0894307E-2,-2.6421858E-2,6.4888108E-3,-6.73799E-2,-0E0],"categories":[],"categories_nodes":[],"categories_segments":[],"categories_sizes":[],"default_left":[0,0,0,0,0,0,0,0,0,0,0,0,0,0,0,0,0,0,0,0,0,0,0,0,0,0,0,0,0,0,0,0,0,0,0,0,0],"id":8,"left_children":[1,3,5,7,9,11,13,15,17,19,21,-1,23,-1,-1,25,-1,-1,27,-1,29,31,33,-1,35,-1,-1,-1,-1,-1,-1,-1,-1,-1,-1,-1,-1],"loss_changes":[5.4090233E0,8.433935E0,2.827179E0,4.7580237E0,6.5131207E0,2.7847762E0,3.6964455E-1,2.8388214E0,3.1155035E0,5.6868687E0,5.245748E0,0E0,2.6770754E0,0E0,0E0,2.4843726E0,0E0,0E0,2.0048926E0,0E0,1.1592741E0,2.6224089E0,2.5327516E0,0E0,1.7947531E0,0E0,0E0,0E0,0E0,0E0,0E0,0E0,0E0,0E0,0E0,0E0,0E0],"parents":[2147483647,0,0,1,1,2,2,3,3,4,4,5,5,6,6,7,7,8,8,9,9,10,10,12,12,15,15,18,18,20,20,21,21,22,22,24,24],"right_children":[2,4,6,8,10,12,14,16,18,20,22,-1,24,-1,-1,26,-1,-1,28,-1,30,32,34,-1,36,-1,-1,-1,-1,-1,-1,-1,-1,-1,-1,-1,-1],"split_conditions":[4.58E0,1.79E0,1.198E1,1.5297716E3,2.9114145E-1,1.12562254E-1,2.785078E2,1.4571198E3,1.6E0,1.4624476E3,1.2681824E0,6.395156E-3,1.56E0,2.2680342E-2,-0E0,1.66E0,6.401726E-2,-5.3126782E-2,1.5807219E0,5.6019254E-2,2.09E0,1.4643619E3,1.99E0,-0E0,2.03E0,4.3730315E-2,-5.966189E-3,2.2968104E-2,-2.6887873E-2,8.350072E-3,-2.843081E-2,-0E0,-6.0894307E-2,-2.6421858E-2,6.4888108E-3,-6.73799E-2,-0E0],"split_indices":[8,16,9,4,10,10,13,4,16,3,5,0,16,0,0,16,0,0,5,0,16,4,16,0,16,0,0,0,0,0,0,0,0,0,0,0,0],"split_type":[0,0,0,0,0,0,0,0,0,0,0,0,0,0,0,0,0,0,0,0,0,0,0,0,0,0,0,0,0,0,0,0,0,0,0,0,0],"sum_hessian":[2.2044283E2,1.812013E2,3.924153E1,6.857492E1,1.1262637E2,3.2057213E1,7.1843185E0,3.9303093E1,2.9271828E1,2.7447716E1,8.517866E1,3.9694557E0,2.8087759E1,3.4758227E0,3.708496E0,1.9173222E1,2.0129873E1,3.704057E0,2.556777E1,1.3653325E1,1.379439E1,2.845866E1,5.6719994E1,3.9474857E0,2.4140272E1,7.9588327E0,1.1214389E1,2.2076685E1,3.491085E0,5.475855E0,8.318535E0,7.001154E0,2.1457506E1,2.0790405E1,3.592959E1,1.9440268E1,4.700006E0],"tree_param":{"num_deleted":"0","num_feature":"18","num_nodes":"37","size_leaf_vector":"1"}},{"base_weights":[2.4910762E-3,-3.7558684E-1,5.215612E-2,6.7654583E-3,-5.8665335E-1,3.744641E-1,-2.3236405E-2,-5.9856232E-2,-0E0,-8.6243935E-2,4.99924E-1,-4.6120134E-1,2.976487E-2,5.6065964E-3,-3.268422E-2,5.824994E-1,-0E0,8.552983E-3,-6.1389394E-2,-4.123732E-1,6.712534E-2,1.4757183E-2,6.0916923E-2,-5.2652743E-2,-0E0,1.2034299E-2,-1.4469262E-2],"categories":[],"categories_nodes":[],"categories_segments":[],"categories_sizes":[],"default_left":[0,0,0,0,0,0,0,0,0,0,0,0,0,0,0,0,0,0,0,0,0,0,0,0,0,0,0],"id":9,"left_children":[1,3,5,-1,7,9,11,-1,-1,13,15,17,19,-1,-1,21,-1,-1,-1,23,25,-1,-1,-1,-1,-1,-1],"loss_changes":[3.8718486E0,2.8939402E0,5.2220306E0,0E0,1.6688261E0,2.840518E0,4.201637E0,0E0,0E0,8.324239E-1,1.9453268E0,4.2274537E0,2.0833724E0,0E0,0E0,9.564352E-1,0E0,0E0,0E0,1.0846635E0,2.8394024E0,0E0,0E0,0E0,0E0,0E0,0E0],"parents":[2147483647,0,0,1,1,2,2,4,4,5,5,6,6,9,9,10,10,11,11,12,12,15,15,19,19,20,20],"right_children":[2,4,6,-1,8,10,12,-1,-1,14,16,18,20,-1,-1,22,-1,-1,-1,24,26,-1,-1,-1,-1,-1,-1],"split_conditions":[1.9503522E-1,1.23E0,2.795031E-1,6.7654583E-3,1.763907E-1,1.5970527E-1,1.68E0,-5.9856232E-2,-0E0,2.1358076E-1,3.0367398E-1,2.4678494E-1,1.0505145E0,5.6065964E-3,-3.268422E-2,2.0797409E-1,-0E0,8.552983E-3,-6.1389394E-2,2.7628633E-1,1.142476E2,1.4757183E-2,6.0916923E-2,-5.2652743E-2,-0E0,1.2034299E-2,-1.4469262E-2],"split_indices":[1,7,10,0,11,0,15,0,0,1,11,1,5,0,0,10,0,0,0,1,13,0,0,0,0,0,0],"split_type":[0,0,0,0,0,0,0,0,0,0,0,0,0,0,0,0,0,0,0,0,0,0,0,0,0,0,0],"sum_hessian":[2.1933698E2,2.160535E1,1.9773161E2,5.6809306E0,1.592442E1,3.8494656E1,1.5923697E2,1.2000764E1,3.9236567E0,6.6669755E0,3.1827679E1,1.7564064E1,1.416729E2,3.4541497E0,3.2128258E0,2.8649887E1,3.177792E0,5.462815E0,1.2101249E1,7.3888454E0,1.3428406E2,1.1878923E1,1.6770962E1,4.189785E0,3.1990604E0,1.04126015E2,3.0158041E1],"tree_param":{"num_deleted":"0","num_feature":"18","num_nodes":"27","size_leaf_vector":"1"}},{"base_weights":[1.7964178E-3,-1.4432377E-1,1.654515E-1,-5.4644506E-2,-9.551964E-2,-4.8746817E-2,4.231877E-1,3.351747E-1,-1.8509339E-1,-6.638442E-1,7.2635315E-2,5.8117515E-1,-0E0,-0E0,5.4384835E-2,-5.5119514E-1,-6.251544E-2,-0E0,-6.772721E-2,-5.6314778E-2,5.109574E-1,-0E0,6.663389E-1,-4.4933394E-2,3.3673462E-1,-1.3362264E-2,1.8547626E-2,-5.254156E-2,-0E0,4.2799555E-2,-1.3557401E-2,-3.4699406E-2,4.2956253E-3,7.0807844E-2,-1.0108013E-2,-0E0,5.9190977E-2,6.1798725E-2,-3.8823746E-3],"categories":[],"categories_nodes":[],"categories_segments":[],"categories_sizes":[],"default_left":[0,0,0,0,0,0,0,0,0,0,0,0,0,0,0,0,0,0,0,0,0,0,0,0,0,0,0,0,0,0,0,0,0,0,0,0,0,0,0],"id":10,"left_children":[1,3,5,-1,7,9,11,13,15,17,19,21,23,25,-1,27,29,-1,-1,31,33,-1,35,-1,37,-1,-1,-1,-1,-1,-1,-1,-1,-1,-1,-1,-1,-1,-1],"loss_changes":[5.4464617E0,2.1577723E0,6.5013666E0,0E0,4.2555513E0,5.1581287E0,3.6165886E0,2.0127017E0,3.5843968E0,8.408718E-1,3.3638728E0,2.1175404E0,3.4284034E0,5.160378E-1,0E0,1.0504212E0,4.6429467E0,0E0,0E0,2.0468862E0,4.184725E0,0E0,1.762763E0,0E0,2.639224E0,0E0,0E0,0E0,0E0,0E0,0E0,0E0,0E0,0E0,0E0,0E0,0E0,0E0,0E0],"parents":[2147483647,0,0,1,1,2,2,4,4,5,5,6,6,7,7,8,8,9,9,10,10,11,11,12,12,13,13,15,15,16,16,19,19,20,20,22,22,24,24],"right_children":[2,4,6,-1,8,10,12,14,16,18,20,22,24,26,-1,28,30,-1,-1,32,34,-1,36,-1,38,-1,-1,-1,-1,-1,-1,-1,-1,-1,-1,-1,-1,-1,-1],"split_conditions":[2.01E0,1.5970527E-1,1.143117E0,-5.4644506E-2,2.07E0,-1.79109E1,1.5242048E3,-1.507295E2,-6.59533E1,3.15E0,1.0381331E0,1.6E0,1.0816814E0,3.92E0,5.4384835E-2,1.2681824E0,-3.21539E1,-0E0,-6.772721E-2,1.3973619E3,1.1089317E0,-0E0,1.4492968E3,-4.4933394E-2,-3.6884E0,-1.3362264E-2,1.8547626E-2,-5.254156E-2,-0E0,4.2799555E-2,-1.3557401E-2,-3.4699406E-2,4.2956253E-3,7.0807844E-2,-1.0108013E-2,-0E0,5.9190977E-2,6.1798725E-2,-3.8823746E-3],"split_indices":[15,0,6,0,9,13,3,13,13,8,6,16,5,8,0,5,13,0,0,4,6,0,4,0,13,0,0,0,0,0,0,0,0,0,0,0,0,0,0],"split_type":[0,0,0,0,0,0,0,0,0,0,0,0,0,0,0,0,0,0,0,0,0,0,0,0,0,0,0,0,0,0,0,0,0,0,0,0,0,0,0],"sum_hessian":[2.2287799E2,1.14643684E2,1.082343E2,5.66191E0,1.0898177E2,5.7876408E1,5.035789E1,1.5897004E1,9.308477E1,9.423531E0,4.845288E1,3.646837E1,1.3889523E1,9.191268E0,6.705736E0,1.9548399E1,7.353638E1,3.2262702E0,6.1972604E0,3.702276E1,1.1430119E1,4.43564E0,3.2032726E1,4.9274836E0,8.962039E0,5.4659266E0,3.7253408E0,1.5612698E1,3.935701E0,8.529605E0,6.500677E1,9.078925E0,2.7943836E1,7.7007604E0,3.7293582E0,3.2096848E0,2.8823042E1,4.480211E0,4.4818287E0],"tree_param":{"num_deleted":"0","num_feature":"18","num_nodes":"39","size_leaf_vector":"1"}},{"base_weights":[-1.868375E-2,1.4132911E-1,-1.3541676E-1,-2.3397289E-1,2.1959056E-1,-2.3150486E-1,1.514638E-1,-5.5716313E-2,1.2087394E-1,3.5853125E-2,6.6750026E-1,-1.01528764E-1,-7.113173E-1,3.393502E-1,-1.20153554E-1,4.100516E-2,-9.125215E-3,-2.2635245E-1,2.2135387E-1,6.1390135E-2,-0E0,-2.4536721E-1,3.4366396E-1,-6.980351E-2,-0E0,4.9894795E-2,8.96115E-2,-3.0874005E-2,2.3238882E-3,4.153055E-2,-4.0360715E-2,-0E0,6.135829E-2,-4.3080144E-2,-3.893106E-3,4.1709974E-2,-1.2747498E-2,-5.2100536E-4,3.466454E-2],"categories":[],"categories_nodes":[],"categories_segments":[],"categories_sizes":[],"default_left":[0,0,0,0,0,0,0,0,0,0,0,0,0,0,0,0,0,0,0,0,0,0,0,0,0,0,0,0,0,0,0,0,0,0,0,0,0,0,0],"id":11,"left_children":[1,3,5,7,9,11,13,-1,15,17,19,21,23,25,27,-1,-1,29,31,-1,-1,33,35,-1,-1,-1,37,-1,-1,-1,-1,-1,-1,-1,-1,-1,-1,-1,-1],"loss_changes":[4.088317E0,2.7011929E0,3.7388284E0,3.0600111E0,5.5728874E0,5.3367214E0,1.8961296E0,0E0,1.2945411E0,2.9254324E0,1.0536118E0,5.4099526E0,2.5971537E0,6.7878604E-1,8.584474E-1,0E0,0E0,5.2504187E0,4.1330247E0,0E0,0E0,3.1595092E0,2.2710664E0,0E0,0E0,0E0,9.43959E-1,0E0,0E0,0E0,0E0,0E0,0E0,0E0,0E0,0E0,0E0,0E0,0E0],"parents":[2147483647,0,0,1,1,2,2,3,3,4,4,5,5,6,6,8,8,9,9,10,10,11,11,12,12,13,13,14,14,17,17,18,18,21,21,22,22,26,26],"right_children":[2,4,6,8,10,12,14,-1,16,18,20,22,24,26,28,-1,-1,30,32,-1,-1,34,36,-1,-1,-1,38,-1,-1,-1,-1,-1,-1,-1,-1,-1,-1,-1,-1],"split_conditions":[1.79E0,1.4971247E-1,3.29E0,1.2682257E0,1.4437982E0,3.615318E-1,5.42E0,-5.5716313E-2,5.58E0,3.5337248E-1,2.8277227E-1,2.37E0,1.5610145E3,1.4341449E3,1.86E0,4.100516E-2,-9.125215E-3,2.2E0,2.86E0,6.1390135E-2,-0E0,1.93E0,2.39E0,-6.980351E-2,-0E0,4.9894795E-2,2.12E0,-3.0874005E-2,2.3238882E-3,4.153055E-2,-4.0360715E-2,-0E0,6.135829E-2,-4.3080144E-2,-3.893106E-3,4.1709974E-2,-1.2747498E-2,-5.2100536E-4,3.466454E-2],"split_indices":[16,12,7,14,5,12,7,0,8,2,2,7,3,3,15,0,0,15,9,0,0,16,16,0,0,0,9,0,0,0,0,0,0,0,0,0,0,0,0],"split_type":[0,0,0,0,0,0,0,0,0,0,0,0,0,0,0,0,0,0,0,0,0,0,0,0,0,0,0,0,0,0,0,0,0,0,0,0,0,0,0],"sum_hessian":[2.1514221E2,8.695706E1,1.2818515E2,1.2112886E1,7.484417E1,9.8923454E1,2.9261702E1,5.646456E0,6.466431E0,5.618795E1,1.8656223E1,8.138458E1,1.753887E1,1.9178345E1,1.0083358E1,3.1341743E0,3.3322568E0,2.0864576E1,3.532337E1,1.5418411E1,3.237813E0,6.3887066E1,1.7497515E1,1.4396613E1,3.1422565E0,5.69525E0,1.3483094E1,4.8943176E0,5.18904E0,4.2218585E0,1.664272E1,2.7188711E1,8.134662E0,2.2217972E1,4.1669098E1,1.43446245E1,3.1528897E0,9.795934E0,3.6871605E0],"tree_param":{"num_deleted":"0","num_feature":"18","num_nodes":"39","size_leaf_vector":"1"}},{"base_weights":[-1.6102228E-2,4.671093E-2,-3.412912E-1,-1.7986007E-1,1.4112963E-1,4.217158E-3,-4.4159004E-1,2.4550934E-1,-3.2330143E-1,4.2820057E-1,-0E0,-5.7190573E-1,-1.167971E-2,-0E0,4.2260274E-2,-4.3147922E-1,3.2899465E-2,5.0383526E-1,-1.1821138E-2,-1.432937E-1,1.7312506E-1,-7.369502E-2,-2.4579924E-1,2.3182806E-2,-4.831856E-2,-0E0,-3.9760098E-2,5.7801E-2,1.2798922E-2,-2.032563E-2,4.232025E-2,3.4780946E-2,-1.6360343E-2,-3.874334E-2,-0E0],"categories":[],"categories_nodes":[],"categories_segments":[],"categories_sizes":[],"default_left":[0,0,0,0,0,0,0,0,0,0,0,0,0,0,0,0,0,0,0,0,0,0,0,0,0,0,0,0,0,0,0,0,0,0,0],"id":12,"left_children":[1,3,5,7,9,-1,11,13,15,17,19,21,23,-1,-1,25,-1,27,-1,29,31,-1,33,-1,-1,-1,-1,-1,-1,-1,-1,-1,-1,-1,-1],"loss_changes":[4.8820896E0,3.9932988E0,1.9736414E0,3.4402568E0,5.5249085E0,0E0,1.2665429E0,1.1808202E0,3.7035122E0,2.4592896E0,2.3480234E0,1.0794768E0,2.7290804E0,0E0,0E0,1.2554445E0,0E0,2.017521E0,0E0,3.8713799E0,4.6241403E0,0E0,7.5404197E-1,0E0,0E0,0E0,0E0,0E0,0E0,0E0,0E0,0E0,0E0,0E0,0E0],"parents":[2147483647,0,0,1,1,2,2,3,3,4,4,6,6,7,7,8,8,9,9,10,10,11,11,12,12,15,15,17,17,19,19,20,20,22,22],"right_children":[2,4,6,8,10,-1,12,14,16,18,20,22,24,-1,-1,26,-1,28,-1,30,32,-1,34,-1,-1,-1,-1,-1,-1,-1,-1,-1,-1,-1,-1],"split_conditions":[2.2E0,1.4545399E3,2.1157628E-1,4.0605146E-1,1.507799E3,4.217158E-3,4.902489E-1,2.89E0,1.198E1,3.169198E-1,4.526263E-1,2.634631E-1,1.706503E2,-0E0,4.2260274E-2,1.6E0,3.2899465E-2,1.86E0,-1.1821138E-2,2.11E0,1.91E0,-7.369502E-2,-7.26536E1,2.3182806E-2,-4.831856E-2,-0E0,-3.9760098E-2,5.7801E-2,1.2798922E-2,-2.032563E-2,4.232025E-2,3.4780946E-2,-1.6360343E-2,-3.874334E-2,-0E0],"split_indices":[16,4,0,0,4,0,0,9,9,11,2,11,13,0,0,16,0,16,0,16,16,0,13,0,0,0,0,0,0,0,0,0,0,0,0],"split_type":[0,0,0,0,0,0,0,0,0,0,0,0,0,0,0,0,0,0,0,0,0,0,0,0,0,0,0,0,0,0,0,0,0,0,0],"sum_hessian":[2.2102911E2,1.8410515E2,3.6923973E1,5.050656E1,1.3359859E2,5.6616926E0,3.1262281E1,1.0619691E1,3.988687E1,4.2861996E1,9.073659E1,2.1698362E1,9.56392E0,5.662307E0,4.957384E0,3.6672596E1,3.2142744E0,3.9642845E1,3.219148E0,5.0064644E1,4.067194E1,7.2340794E0,1.4464283E1,5.8961296E0,3.6677907E0,4.4420753E0,3.2230522E1,2.1108028E1,1.8534819E1,4.5327488E1,4.737158E0,2.541141E1,1.52605295E1,5.4562116E0,9.008071E0],"tree_param":{"num_deleted":"0","num_feature":"18","num_nodes":"35","size_leaf_vector":"1"}},{"base_weights":[-4.6796218E-2,-4.3263534E-1,1.3588051E-2,2.2220869E-2,-6.11912E-1,-3.616666E-1,7.736764E-2,-7.082473E-1,-6.711241E-3,-5.0385326E-1,1.5456542E-2,-4.6862014E-2,1.983102E-1,-2.7859476E-4,-6.552478E-2,-0E0,-6.433896E-1,2.819137E-2,-5.5933855E-2,5.4539103E-2,5.187709E-1,-6.4374745E-2,-0E0,2.8836843E-2,-1.1525343E-2,-1.749544E-5,3.678814E-2,6.469449E-2,7.143854E-4],"categories":[],"categories_nodes":[],"categories_segments":[],"categories_sizes":[],"default_left":[0,0,0,0,0,0,0,0,0,0,0,0,0,0,0,0,0,0,0,0,0,0,0,0,0,0,0,0,0],"id":13,"left_children":[1,3,5,-1,7,9,11,13,-1,15,-1,17,19,-1,-1,-1,21,23,-1,25,27,-1,-1,-1,-1,-1,-1,-1,-1],"loss_changes":[5.5317E0,4.74047E0,4.2952704E0,0E0,4.748249E-1,2.519719E0,2.6562304E0,8.250227E-1,0E0,1.9510078E0,0E0,4.586269E0,3.438696E0,0E0,0E0,0E0,2.2462606E0,4.415249E0,0E0,1.9101708E0,2.8571634E0,0E0,0E0,0E0,0E0,0E0,0E0,0E0,0E0],"parents":[2147483647,0,0,1,1,2,2,4,4,5,5,6,6,7,7,9,9,11,11,12,12,16,16,17,17,19,19,20,20],"right_children":[2,4,6,-1,8,10,12,14,-1,16,-1,18,20,-1,-1,-1,22,24,-1,26,28,-1,-1,-1,-1,-1,-1,-1,-1],"split_conditions":[1.69E0,1.4164375E3,2.0820601E-1,2.2220869E-2,1.6020885E3,7.857901E-1,-1.79109E1,-1.352352E2,-6.711241E-3,1.4869739E3,1.5456542E-2,2.41E0,3.1263348E-1,-2.7859476E-4,-6.552478E-2,-0E0,2.4E0,2.5184947E-1,-5.5933855E-2,2.39E0,2.7501523E-1,-6.4374745E-2,-0E0,2.8836843E-2,-1.1525343E-2,-1.749544E-5,3.678814E-2,6.469449E-2,7.143854E-4],"split_indices":[15,3,1,0,3,10,13,13,0,3,0,15,2,0,0,0,15,1,0,15,1,0,0,0,0,0,0,0,0],"split_type":[0,0,0,0,0,0,0,0,0,0,0,0,0,0,0,0,0,0,0,0,0,0,0,0,0,0,0,0,0],"sum_hessian":[2.1693556E2,2.9928942E1,1.8700662E2,4.685534E0,2.5243408E1,2.3532179E1,1.6347444E2,1.9169504E1,6.073903E0,2.0313055E1,3.2191236E0,7.716689E1,8.6307556E1,4.110965E0,1.505854E1,3.9157174E0,1.6397339E1,6.9545685E1,7.621208E0,6.334805E1,2.2959503E1,1.3230248E1,3.16709E0,2.4980621E1,4.456506E1,5.5395763E1,7.9522853E0,1.2638952E1,1.0320551E1],"tree_param":{"num_deleted":"0","num_feature":"18","num_nodes":"29","size_leaf_vector":"1"}},{"base_weights":[1.6707495E-2,-3.790076E-1,7.954068E-2,-6.334589E-1,-0E0,-1.2385268E-1,1.7070602E-1,-0E0,-6.282368E-2,-2.9020956E-2,2.440785E-1,-1.9229287E-1,3.538464E-2,4.1957334E-1,2.4613777E-2,-3.1648374E-3,5.294678E-2,-4.5964617E-1,-0E0,-0E0,5.518304E-1,-4.2880666E-1,1.3540913E-1,-0E0,-4.947459E-2,-1.7994413E-2,2.3602473E-2,1.6945403E-2,-2.4828589E-2,6.666005E-2,1.3037619E-2,-4.8339494E-2,-0E0,3.1775657E-2,1.4329025E-3],"categories":[],"categories_nodes":[],"categories_segments":[],"categories_sizes":[],"default_left":[0,0,0,0,0,0,0,0,0,0,0,0,0,0,0,0,0,0,0,0,0,0,0,0,0,0,0,0,0,0,0,0,0,0,0],"id":14,"left_children":[1,3,5,7,9,11,13,-1,-1,-1,15,17,-1,19,21,-1,-1,23,25,27,29,31,33,-1,-1,-1,-1,-1,-1,-1,-1,-1,-1,-1,-1],"loss_changes":[5.158471E0,2.6878557E0,3.6339622E0,1.5330634E0,1.3485556E0,2.1261013E0,4.488577E0,0E0,0E0,0E0,1.7516317E0,2.4605353E0,0E0,2.159648E0,4.3693476E0,0E0,0E0,1.0437627E0,2.3896244E0,1.0333636E0,2.5283728E0,1.5501764E0,1.9091046E0,0E0,0E0,0E0,0E0,0E0,0E0,0E0,0E0,0E0,0E0,0E0,0E0],"parents":[2147483647,0,0,1,1,2,2,3,3,4,4,5,5,6,6,10,10,11,11,13,13,14,14,17,17,18,18,19,19,20,20,21,21,22,22],"right_children":[2,4,6,8,10,12,14,-1,-1,-1,16,18,-1,20,22,-1,-1,24,26,28,30,32,34,-1,-1,-1,-1,-1,-1,-1,-1,-1,-1,-1,-1],"split_conditions":[1.68E0,3.91E0,1.4571198E3,1.4592034E3,8.821336E-1,1.3148896E0,1.5133832E3,-0E0,-6.282368E-2,-2.9020956E-2,2.38E0,7.34785E1,3.538464E-2,-1.62147E1,2.195372E-1,-3.1648374E-3,5.294678E-2,4.0605146E-1,9.1337705E-1,-3.21539E1,1.86E0,8.57E0,2.4902724E-1,-0E0,-4.947459E-2,-1.7994413E-2,2.3602473E-2,1.6945403E-2,-2.4828589E-2,6.666005E-2,1.3037619E-2,-4.8339494E-2,-0E0,3.1775657E-2,1.4329025E-3],"split_indices":[15,8,4,4,6,6,4,0,0,0,16,13,0,13,11,0,0,0,6,13,16,7,10,0,0,0,0,0,0,0,0,0,0,0,0],"split_type":[0,0,0,0,0,0,0,0,0,0,0,0,0,0,0,0,0,0,0,0,0,0,0,0,0,0,0,0,0,0,0,0,0,0,0],"sum_hessian":[2.150864E2,2.5912678E1,1.8917372E2,1.4690552E1,1.1222126E1,5.4932045E1,1.3424167E2,3.3443208E0,1.1346231E1,4.1329656E0,7.08916E0,5.1761826E1,3.17022E0,4.5738113E1,8.8503555E1,3.8750377E0,3.2141225E0,1.9055357E1,3.270647E1,1.3048564E1,3.268955E1,1.4479851E1,7.4023705E1,6.695048E0,1.2360309E1,2.0096933E1,1.2609536E1,9.831358E0,3.2172053E0,1.61468E1,1.6542751E1,1.0545279E1,3.9345725E0,1.8820257E1,5.520345E1],"tree_param":{"num_deleted":"0","num_feature":"18","num_nodes":"35","size_leaf_vector":"1"}},{"base_weights":[-2.5323927E-2,-1.7744446E-1,1.2327492E-1,-2.6205182E-1,4.7881115E-2,1.858187E-1,-1.7372224E-1,-4.4395127E-3,-4.430637E-1,3.642927E-1,-2.698782E-1,2.5534633E-1,-2.2742774E-1,4.4355303E-2,-4.7101414E-1,-2.514808E-1,3.5683554E-1,-6.3107574E-1,-0E0,5.0734997E-2,-5.230036E-3,-4.3857282E-1,-0E0,4.0205035E-1,-0E0,-0E0,-3.225925E-2,3.355732E-2,-1.1988611E-2,-6.1768167E-2,-0E0,-3.969918E-2,4.1684853E-3,-0E0,4.5539554E-2,-5.433337E-2,-0E0,3.1864174E-2,-2.7891306E-2,-0E0,-5.098265E-2,-0E0,3.7128836E-2,-1.430228E-2,3.6634717E-2],"categories":[],"categories_nodes":[],"categories_segments":[],"categories_sizes":[],"default_left":[0,0,0,0,0,0,0,0,0,0,0,0,0,0,0,0,0,0,0,0,0,0,0,0,0,0,0,0,0,0,0,0,0,0,0,0,0,0,0,0,0,0,0,0,0],"id":15,"left_children":[1,3,5,7,9,11,13,15,17,19,21,23,25,27,29,31,33,35,37,-1,-1,39,-1,41,43,-1,-1,-1,-1,-1,-1,-1,-1,-1,-1,-1,-1,-1,-1,-1,-1,-1,-1,-1,-1],"loss_changes":[5.068116E0,2.3895912E0,2.1028237E0,3.5372858E0,3.2324898E0,2.8406053E0,1.5853152E0,3.6084232E0,3.8444366E0,2.6332185E0,8.9083624E-1,3.4792943E0,6.560446E-1,1.1110904E0,1.6115391E0,2.4527087E0,1.5674103E0,6.774988E-1,2.578899E0,0E0,0E0,9.0120757E-1,0E0,1.2601814E0,2.38864E0,0E0,0E0,0E0,0E0,0E0,0E0,0E0,0E0,0E0,0E0,0E0,0E0,0E0,0E0,0E0,0E0,0E0,0E0,0E0,0E0],"parents":[2147483647,0,0,1,1,2,2,3,3,4,4,5,5,6,6,7,7,8,8,9,9,10,10,11,11,12,12,13,13,14,14,15,15,16,16,17,17,18,18,21,21,23,23,24,24],"right_children":[2,4,6,8,10,12,14,16,18,20,22,24,26,28,30,32,34,36,38,-1,-1,40,-1,42,44,-1,-1,-1,-1,-1,-1,-1,-1,-1,-1,-1,-1,-1,-1,-1,-1,-1,-1,-1,-1],"split_conditions":[2.02E0,1.6020885E3,2.8122392E-1,1.4757637E3,1.6653912E3,1.1920422E0,1.4858031E3,1.4438617E3,4.871974E-1,1.63932E2,1.198E1,1.5924521E3,2.25E0,3.622123E-1,1.4757637E3,3.77E0,2.35E0,7.03089E1,5.381551E-1,5.0734997E-2,-5.230036E-3,1.504827E3,-0E0,1.4076582E3,1.706166E3,-0E0,-3.225925E-2,3.355732E-2,-1.1988611E-2,-6.1768167E-2,-0E0,-3.969918E-2,4.1684853E-3,-0E0,4.5539554E-2,-5.433337E-2,-0E0,3.1864174E-2,-2.7891306E-2,-0E0,-5.098265E-2,-0E0,3.7128836E-2,-1.430228E-2,3.6634717E-2],"split_indices":[15,3,1,3,3,14,4,3,14,13,9,4,15,0,3,8,9,13,0,0,0,4,0,4,4,0,0,0,0,0,0,0,0,0,0,0,0,0,0,0,0,0,0,0,0],"split_type":[0,0,0,0,0,0,0,0,0,0,0,0,0,0,0,0,0,0,0,0,0,0,0,0,0,0,0,0,0,0,0,0,0,0,0,0,0,0,0,0,0,0,0,0,0],"sum_hessian":[2.1787225E2,1.1079391E2,1.0707835E2,8.353823E1,2.7255678E1,9.185136E1,1.52269945E1,3.7600105E1,4.5938126E1,1.5086908E1,1.2168769E1,8.134871E1,1.0502646E1,7.8249407E0,7.402054E0,2.4335314E1,1.32647915E1,3.1282442E1,1.4655683E1,1.0111065E1,4.975844E0,7.996604E0,4.1721654E0,5.3144325E1,2.8204384E1,4.490963E0,6.011684E0,3.634481E0,4.1904597E0,4.20226E0,3.1997943E0,1.4594031E1,9.741283E0,4.4293733E0,8.835418E0,2.8204678E1,3.0777655E0,6.3918524E0,8.26383E0,3.0431235E0,4.9534802E0,7.9111447E0,4.523318E1,2.2556595E1,5.647789E0],"tree_param":{"num_deleted":"0","num_feature":"18","num_nodes":"45","size_leaf_vector":"1"}},{"base_weights":[-2.307734E-2,4.0506475E-2,-3.5966238E-1,2.9910898E-1,-3.0385058E-2,-0E0,-4.7262985E-1,-3.7573002E-2,4.1083607E-1,-4.9844304E-1,3.4192733E-2,-1.7333081E-2,3.0287229E-2,-0E0,-5.7018363E-1,-0E0,5.1145166E-1,2.0823216E-4,-6.616823E-1,-5.0891597E-2,2.4674144E-1,-6.0856268E-2,-3.890686E-2,2.0332985E-2,-1.6416851E-2,4.6215944E-2,2.557169E-3,-7.731295E-2,-1.964208E-2,-4.2410206E-2,4.2986143E-3,-1.973838E-2,2.8282296E-2,1.4262738E-2,-3.0361433E-2],"categories":[],"categories_nodes":[],"categories_segments":[],"categories_sizes":[],"default_left":[0,0,0,0,0,0,0,0,0,0,0,0,0,0,0,0,0,0,0,0,0,0,0,0,0,0,0,0,0,0,0,0,0,0,0],"id":16,"left_children":[1,3,5,7,9,11,13,-1,15,17,19,-1,-1,-1,21,23,25,-1,27,29,31,-1,33,-1,-1,-1,-1,-1,-1,-1,-1,-1,-1,-1,-1],"loss_changes":[4.967469E0,3.6021836E0,1.8954391E0,3.945524E0,4.75152E0,1.0437984E0,1.4222159E0,0E0,1.3626552E0,2.2219424E0,2.4570482E0,0E0,0E0,0E0,1.664074E0,6.820589E-1,3.1791162E-1,0E0,3.2910776E-1,4.87534E0,2.3389676E0,0E0,1.0816795E0,0E0,0E0,0E0,0E0,0E0,0E0,0E0,0E0,0E0,0E0,0E0,0E0],"parents":[2147483647,0,0,1,1,2,2,3,3,4,4,5,5,6,6,8,8,9,9,10,10,14,14,15,15,16,16,18,18,19,19,20,20,22,22],"right_children":[2,4,6,8,10,12,14,-1,16,18,20,-1,-1,-1,22,24,26,-1,28,30,32,-1,34,-1,-1,-1,-1,-1,-1,-1,-1,-1,-1,-1,-1],"split_conditions":[2.2E0,-3.673617E-1,9.60678E-1,1.6E0,-1.432691E-1,-8.587615E-1,1.427119E3,-3.7573002E-2,1.88E0,1.65E0,1.93E0,-1.7333081E-2,3.0287229E-2,-0E0,6.678761E-1,1.6221849E3,1.6899397E3,2.0823216E-4,1.0875733E0,2.02E0,1.4438617E3,-6.0856268E-2,1.6502434E3,2.0332985E-2,-1.6416851E-2,4.6215944E-2,2.557169E-3,-7.731295E-2,-1.964208E-2,-4.2410206E-2,4.2986143E-3,-1.973838E-2,2.8282296E-2,1.4262738E-2,-3.0361433E-2],"split_indices":[16,14,5,16,14,14,3,0,15,16,16,0,0,0,14,4,4,0,5,15,3,0,3,0,0,0,0,0,0,0,0,0,0,0,0],"split_type":[0,0,0,0,0,0,0,0,0,0,0,0,0,0,0,0,0,0,0,0,0,0,0,0,0,0,0,0,0,0,0,0,0,0,0],"sum_hessian":[2.138356E2,1.7883957E2,3.4996044E1,4.012751E1,1.3871205E2,7.086615E0,2.7909428E1,3.1430588E0,3.698445E1,1.7066048E1,1.21646E2,3.6568851E0,3.42973E0,4.984421E0,2.2925007E1,8.620468E0,2.8363985E1,3.1720138E0,1.3894034E1,8.459752E1,3.704849E1,1.4852759E1,8.0722475E0,4.696875E0,3.9235928E0,2.2728516E1,5.6354694E0,5.107021E0,8.787014E0,1.5414557E1,6.918296E1,4.458782E0,3.2589706E1,3.7184339E0,4.3538136E0],"tree_param":{"num_deleted":"0","num_feature":"18","num_nodes":"35","size_leaf_vector":"1"}},{"base_weights":[5.0931806E-3,-2.2255433E-1,6.6853255E-2,1.4753322E-2,-2.920779E-1,2.5628848E-2,3.91557E-1,-4.704796E-1,-0E0,-1.2854971E-1,1.7401516E-1,6.3802564E-1,-1.1506913E-2,-5.44427E-1,-0E0,3.2358754E-2,-2.1209672E-1,-4.507841E-1,-3.727299E-2,-1.361648E-1,2.7195853E-1,-0E0,8.639105E-2,-5.19831E-2,-0E0,-0E0,-3.250952E-2,-0E0,-8.277843E-2,3.0077037E-3,-3.83769E-2,-3.9340794E-2,5.7200868E-2,2.921855E-2,-1.3754066E-2],"categories":[],"categories_nodes":[],"categories_segments":[],"categories_sizes":[],"default_left":[0,0,0,0,0,0,0,0,0,0,0,0,0,0,0,0,0,0,0,0,0,0,0,0,0,0,0,0,0,0,0,0,0,0,0],"id":17,"left_children":[1,3,5,-1,7,9,11,13,15,17,19,21,-1,23,-1,-1,25,27,29,31,33,-1,-1,-1,-1,-1,-1,-1,-1,-1,-1,-1,-1,-1,-1],"loss_changes":[2.907363E0,1.4333797E0,1.9012282E0,0E0,2.0104508E0,3.7482023E0,2.8957205E0,8.9284086E-1,1.6314818E0,1.7213509E0,2.8113341E0,3.7454667E0,0E0,6.076641E-1,0E0,0E0,9.0263665E-1,3.6823375E0,2.5990384E0,6.3617296E0,3.1424832E0,0E0,0E0,0E0,0E0,0E0,0E0,0E0,0E0,0E0,0E0,0E0,0E0,0E0,0E0],"parents":[2147483647,0,0,1,1,2,2,4,4,5,5,6,6,7,7,8,8,9,9,10,10,11,11,13,13,16,16,17,17,18,18,19,19,20,20],"right_children":[2,4,6,-1,8,10,12,14,16,18,20,22,-1,24,-1,-1,26,28,30,32,34,-1,-1,-1,-1,-1,-1,-1,-1,-1,-1,-1,-1,-1,-1],"split_conditions":[1.74E0,7.899287E-1,1.967899E2,1.4753322E-2,2.634631E-1,2.33E0,2.2085953E-1,5.7647634E-1,2.6973087E-1,-1.94515E1,1.88E0,1.077271E-1,-1.1506913E-2,1.5961486E3,-0E0,3.2358754E-2,1.427119E3,2.7931717E-1,6.370103E-1,-5.7917E0,2.4E0,-0E0,8.639105E-2,-5.19831E-2,-0E0,-0E0,-3.250952E-2,-0E0,-8.277843E-2,3.0077037E-3,-3.83769E-2,-3.9340794E-2,5.7200868E-2,2.921855E-2,-1.3754066E-2],"split_indices":[15,6,13,0,11,7,1,12,11,13,15,2,0,3,0,0,3,11,0,13,15,0,0,0,0,0,0,0,0,0,0,0,0,0,0],"split_type":[0,0,0,0,0,0,0,0,0,0,0,0,0,0,0,0,0,0,0,0,0,0,0,0,0,0,0,0,0,0,0,0,0,0,0],"sum_hessian":[2.1374745E2,4.1047543E1,1.7269992E2,3.4081945E0,3.7639347E1,1.5789159E2,1.4808332E1,2.2359783E1,1.5279564E1,7.426051E1,8.3631065E1,1.1156725E1,3.6516078E0,1.9204082E1,3.1557016E0,4.442195E0,1.0837368E1,1.22348385E1,6.2025677E1,1.7432638E1,6.619843E1,5.3522406E0,5.804484E0,1.4324382E1,4.8797E0,3.8742852E0,6.9630833E0,8.093857E0,4.140982E0,5.2680878E1,9.344797E0,1.3720144E1,3.7124944E0,5.685807E1,9.340359E0],"tree_param":{"num_deleted":"0","num_feature":"18","num_nodes":"35","size_leaf_vector":"1"}},{"base_weights":[-0E0,5.4343775E-2,-3.5765553E-1,-2.9182274E-2,1.6038384E-1,-4.3026918E-1,-0E0,3.368645E-2,-5.2638245E-1,3.6341208E-1,-9.033488E-2,-0E0,-4.8911762E-1,1.6936368E-1,-1.0399375E-1,-5.6985896E-2,-4.5464427E-4,-8.110906E-3,4.333117E-1,-2.1009624E-1,4.2551097E-2,-1.09295934E-1,-5.989245E-1,3.2325275E-2,-0E0,-1.9791316E-2,2.6738845E-2,-1.6485981E-4,3.914872E-2,-3.0994529E-2,-0E0,-3.942198E-2,1.2418372E-2,-5.6031216E-2,-3.2532508E-3],"categories":[],"categories_nodes":[],"categories_segments":[],"categories_sizes":[],"default_left":[0,0,0,0,0,0,0,0,0,0,0,0,0,0,0,0,0,0,0,0,0,0,0,0,0,0,0,0,0,0,0,0,0,0,0],"id":18,"left_children":[1,3,5,7,9,11,-1,13,15,17,19,-1,21,23,25,-1,-1,-1,27,29,-1,31,33,-1,-1,-1,-1,-1,-1,-1,-1,-1,-1,-1,-1],"loss_changes":[4.348691E0,1.8457055E0,1.1045356E0,3.782391E0,4.9408393E0,4.302268E-1,0E0,1.8287925E0,5.8987284E-1,2.1273537E0,2.8713665E0,0E0,8.742905E-2,1.7071902E0,2.8121014E0,0E0,0E0,0E0,1.6590385E0,1.420629E0,0E0,1.4512823E0,3.7198544E-2,0E0,0E0,0E0,0E0,0E0,0E0,0E0,0E0,0E0,0E0,0E0,0E0],"parents":[2147483647,0,0,1,1,2,2,3,3,4,4,5,5,7,7,8,8,9,9,10,10,12,12,13,13,14,14,18,18,19,19,21,21,22,22],"right_children":[2,4,6,8,10,12,-1,14,16,18,20,-1,22,24,26,-1,-1,-1,28,30,-1,32,34,-1,-1,-1,-1,-1,-1,-1,-1,-1,-1,-1,-1],"split_conditions":[1.62229E2,-1.79109E1,2.4E0,-3.57841E1,1.5327545E0,1.3395639E-1,-0E0,1.4624476E3,3.21E0,1.68E0,1.475897E2,-0E0,1.6215463E3,2.4856342E-1,-6.15344E1,-5.6985896E-2,-4.5464427E-4,-8.110906E-3,1.4362931E3,5.04E0,4.2551097E-2,1.913137E2,1.6919802E3,3.2325275E-2,-0E0,-1.9791316E-2,2.6738845E-2,-1.6485981E-4,3.914872E-2,-3.0994529E-2,-0E0,-3.942198E-2,1.2418372E-2,-5.6031216E-2,-3.2532508E-3],"split_indices":[13,13,15,13,5,11,0,3,9,15,13,0,3,1,13,0,0,0,3,9,0,13,3,0,0,0,0,0,0,0,0,0,0,0,0],"split_type":[0,0,0,0,0,0,0,0,0,0,0,0,0,0,0,0,0,0,0,0,0,0,0,0,0,0,0,0,0,0,0,0,0,0,0],"sum_hessian":[2.1806834E2,1.9051694E2,2.7551401E1,1.0210761E2,8.8409325E1,2.4384892E1,3.1665099E0,9.0515564E1,1.1592053E1,5.055788E1,3.7851444E1,4.168745E0,2.0216146E1,4.9015804E1,4.1499756E1,6.5842886E0,5.0077643E0,4.621304E0,4.5936577E1,3.420058E1,3.6508636E0,7.4711275E0,1.2745019E1,1.7419025E1,3.1596777E1,3.3643703E1,7.856055E0,3.4239492E0,4.2512627E1,1.8109745E1,1.6090836E1,3.888563E0,3.5825644E0,8.838169E0,3.9068499E0],"tree_param":{"num_deleted":"0","num_feature":"18","num_nodes":"35","size_leaf_vector":"1"}},{"base_weights":[2.3440002E-2,-1.4132285E-1,9.190434E-2,-2.6368052E-1,4.062578E-1,5.379727E-1,-6.3541643E-3,2.134317E-1,-3.9884004E-1,-0E0,5.6606703E-2,1.8747905E-1,7.3221E-1,1.445997E-1,-1.1405213E-1,-0E0,3.0074034E-2,-1.4363098E-1,-7.180923E-1,6.5239775E-1,-3.8444247E-2,8.277954E-2,2.022798E-1,4.805794E-1,2.0407338E-4,-4.5512778E-1,6.286668E-2,1.4924465E-2,-3.671118E-2,-6.8273455E-2,-8.1444375E-4,7.966371E-2,1.394322E-3,-0E0,3.879806E-2,4.9202103E-2,-0E0,-1.631623E-2,9.214958E-3,-4.8381828E-2,-0E0,-6.0615293E-3,2.9390983E-2],"categories":[],"categories_nodes":[],"categories_segments":[],"categories_sizes":[],"default_left":[0,0,0,0,0,0,0,0,0,0,0,0,0,0,0,0,0,0,0,0,0,0,0,0,0,0,0,0,0,0,0,0,0,0,0,0,0,0,0,0,0,0,0],"id":19,"left_children":[1,3,5,7,9,11,13,15,17,-1,-1,19,21,23,25,-1,-1,27,29,31,-1,-1,33,35,37,39,41,-1,-1,-1,-1,-1,-1,-1,-1,-1,-1,-1,-1,-1,-1,-1,-1],"loss_changes":[2.4229906E0,4.102735E0,7.494735E0,3.7013087E0,1.0177784E0,8.828449E-1,2.1191618E0,3.3107316E-1,2.4158425E0,0E0,0E0,5.5827947E0,1.0869484E0,2.0043373E0,5.335536E0,0E0,0E0,3.358593E0,7.241602E-1,1.3098707E0,0E0,0E0,1.0395936E0,6.6203E-1,8.951496E-1,2.038941E0,2.5908496E0,0E0,0E0,0E0,0E0,0E0,0E0,0E0,0E0,0E0,0E0,0E0,0E0,0E0,0E0,0E0,0E0],"parents":[2147483647,0,0,1,1,2,2,3,3,4,4,5,5,6,6,7,7,8,8,11,11,12,12,13,13,14,14,17,17,18,18,19,19,22,22,23,23,24,24,25,25,26,26],"right_children":[2,4,6,8,10,12,14,16,18,-1,-1,20,22,24,26,-1,-1,28,30,32,-1,-1,34,36,38,40,42,-1,-1,-1,-1,-1,-1,-1,-1,-1,-1,-1,-1,-1,-1,-1,-1],"split_conditions":[1.4571198E3,1.1939788E0,1.4841832E3,1.3681871E3,1.43254E3,2.5718164E-1,2.9662937E-1,9.1337705E-1,2.5368676E-1,-0E0,5.6606703E-2,2.3677425E-1,1.4693392E3,1.5792191E3,1.2424885E0,-0E0,3.0074034E-2,6.25E0,2.8468776E-1,6.3437384E-1,-3.8444247E-2,8.277954E-2,1.4746996E3,5.364169E-1,1.6198314E3,1.5993143E3,2.7429453E-1,1.4924465E-2,-3.671118E-2,-6.8273455E-2,-8.1444375E-4,7.966371E-2,1.394322E-3,-0E0,3.879806E-2,4.9202103E-2,-0E0,-1.631623E-2,9.214958E-3,-4.8381828E-2,-0E0,-6.0615293E-3,2.9390983E-2],"split_indices":[4,6,4,4,4,1,10,6,2,0,0,11,4,4,5,0,0,9,1,0,0,0,4,2,4,4,11,0,0,0,0,0,0,0,0,0,0,0,0,0,0,0,0],"split_type":[0,0,0,0,0,0,0,0,0,0,0,0,0,0,0,0,0,0,0,0,0,0,0,0,0,0,0,0,0,0,0,0,0,0,0,0,0,0,0,0,0,0,0],"sum_hessian":[2.1487503E2,5.8164574E1,1.5671046E2,4.98816E1,8.282974E0,2.8509907E1,1.2820055E2,9.122467E0,4.0759132E1,4.860421E0,3.4225528E0,1.3403168E1,1.5106739E1,4.9228863E1,7.897169E1,5.194528E0,3.927939E0,2.600386E1,1.4755272E1,8.813282E0,4.589885E0,7.202575E0,7.904164E0,1.1316287E1,3.7912575E1,2.7828793E1,5.11429E1,1.1550704E1,1.4453156E1,1.0856273E1,3.899E0,3.9601724E0,4.85311E0,3.761161E0,4.143003E0,7.880875E0,3.435412E0,9.968539E0,2.7944035E1,2.0468111E1,7.360682E0,3.3919334E1,1.7223564E1],"tree_param":{"num_deleted":"0","num_feature":"18","num_nodes":"43","size_leaf_vector":"1"}},{"base_weights":[2.6560968E-3,-2.960137E-1,5.0069984E-2,3.343067E-2,-5.5617285E-1,8.630005E-2,-2.3554409E-1,2.6991487E-1,-1.657049E-2,-4.928859E-2,-6.658602E-2,1.1782794E-1,-1.5580878E-1,3.428274E-2,-5.5312526E-1,3.6365617E-2,-0E0,6.3654683E-3,-2.5018472E-2,3.9597502E-1,2.6961023E-2,1.1687406E-1,-5.196861E-1,-0E0,-5.968999E-2,4.74482E-2,-3.0859169E-3,-1.7824667E-2,8.823235E-3,4.0077906E-2,-1.1384156E-2,-6.594119E-2,-0E0],"categories":[],"categories_nodes":[],"categories_segments":[],"categories_sizes":[],"default_left":[0,0,0,0,0,0,0,0,0,0,0,0,0,0,0,0,0,0,0,0,0,0,0,0,0,0,0,0,0,0,0,0,0],"id":20,"left_children":[1,3,5,7,9,11,13,15,-1,17,-1,19,21,-1,23,-1,-1,-1,-1,25,27,29,31,-1,-1,-1,-1,-1,-1,-1,-1,-1,-1],"loss_changes":[2.9404478E0,2.9545898E0,1.9296948E0,8.867826E-1,1.4748783E0,1.3679322E0,4.7328978E0,5.500525E-1,0E0,6.0700864E-1,0E0,3.6880808E0,2.297788E0,0E0,1.58215E0,0E0,0E0,0E0,0E0,3.8044271E0,2.602702E0,1.5245297E0,1.2806196E0,0E0,0E0,0E0,0E0,0E0,0E0,0E0,0E0,0E0,0E0],"parents":[2147483647,0,0,1,1,2,2,3,3,4,4,5,5,6,6,7,7,9,9,11,11,12,12,14,14,19,19,20,20,21,21,22,22],"right_children":[2,4,6,8,10,12,14,16,-1,18,-1,20,22,-1,24,-1,-1,-1,-1,26,28,30,32,-1,-1,-1,-1,-1,-1,-1,-1,-1,-1],"split_conditions":[1.68E0,1.1149803E0,5.58E0,1.4653469E3,2.3179914E-1,2.8122392E-1,1.3670278E-1,9.83775E-1,-1.657049E-2,1.6502434E3,-6.658602E-2,3.4E0,3.12E0,3.428274E-2,1.5874552E3,3.6365617E-2,-0E0,6.3654683E-3,-2.5018472E-2,3.043478E-1,1.4438617E3,2.36E0,2.28E0,-0E0,-5.968999E-2,4.74482E-2,-3.0859169E-3,-1.7824667E-2,8.823235E-3,4.0077906E-2,-1.1384156E-2,-6.594119E-2,-0E0],"split_indices":[15,5,8,3,11,1,11,5,0,3,0,8,8,0,3,0,0,0,0,11,3,15,15,0,0,0,0,0,0,0,0,0,0],"split_type":[0,0,0,0,0,0,0,0,0,0,0,0,0,0,0,0,0,0,0,0,0,0,0,0,0,0,0,0,0,0,0,0,0],"sum_hessian":[2.2091696E2,2.5939774E1,1.9497719E2,1.0518809E1,1.5420964E1,1.7737424E2,1.7602959E1,7.277532E0,3.2412767E0,7.546796E0,7.8741684E0,1.6150037E2,1.5873866E1,4.4500794E0,1.315288E1,3.9329906E0,3.3445415E0,3.456273E0,4.090523E0,3.5404682E1,1.2609569E2,8.279102E0,7.5947647E0,3.9832902E0,9.169589E0,2.5437012E1,9.967671E0,2.770506E1,9.8390625E1,4.138426E0,4.140676E0,3.698912E0,3.8958528E0],"tree_param":{"num_deleted":"0","num_feature":"18","num_nodes":"33","size_leaf_vector":"1"}},{"base_weights":[-1.8690547E-2,1.1861753E-1,-1.1163169E-1,2.7347898E-1,-9.855314E-2,-5.75953E-1,-5.7652008E-2,4.301148E-1,-2.536889E-1,2.3850942E-2,-6.617677E-2,-0E0,-6.3166924E-2,-3.0727345E-1,-0E0,-2.392864E-2,7.7271444E-1,-6.2147178E-2,4.1559063E-2,1.9776884E-1,-3.2303318E-1,1.128571E-2,-4.9201378E-1,-7.545309E-2,6.015433E-1,2.9357731E-2,-4.4087343E-2,1.2181259E-2,7.606804E-2,1.5062966E-2,-0E0,3.0923802E-2,-5.2183354E-3,-0E0,-5.3915348E-2,-5.241154E-2,-0E0,4.247673E-2,-9.8489225E-3,6.9297515E-2,8.232872E-3],"categories":[],"categories_nodes":[],"categories_segments":[],"categories_sizes":[],"default_left":[0,0,0,0,0,0,0,0,0,0,0,0,0,0,0,0,0,0,0,0,0,0,0,0,0,0,0,0,0,0,0,0,0,0,0,0,0,0,0,0,0],"id":21,"left_children":[1,3,5,7,9,11,13,15,17,19,-1,-1,-1,21,23,25,27,-1,29,31,33,-1,35,37,39,-1,-1,-1,-1,-1,-1,-1,-1,-1,-1,-1,-1,-1,-1,-1,-1],"loss_changes":[2.8246715E0,3.0994534E0,2.7201743E0,4.7746243E0,3.9031415E0,1.0794277E0,1.7887784E0,7.4897766E0,2.6450195E0,1.821207E0,0E0,0E0,0E0,2.4275165E0,4.8049226E0,4.548984E0,1.4675255E0,0E0,1.6375868E-1,1.525563E0,1.5497499E0,0E0,1.1093168E0,2.4748988E0,4.073162E-1,0E0,0E0,0E0,0E0,0E0,0E0,0E0,0E0,0E0,0E0,0E0,0E0,0E0,0E0,0E0,0E0],"parents":[2147483647,0,0,1,1,2,2,3,3,4,4,5,5,6,6,7,7,8,8,9,9,13,13,14,14,15,15,16,16,18,18,19,19,20,20,22,22,23,23,24,24],"right_children":[2,4,6,8,10,12,14,16,18,20,-1,-1,-1,22,24,26,28,-1,30,32,34,-1,36,38,40,-1,-1,-1,-1,-1,-1,-1,-1,-1,-1,-1,-1,-1,-1,-1,-1],"split_conditions":[1.79E0,1.5213716E3,1.3973619E3,6.5257955E-1,1.5927628E0,2.2085953E-1,2.2352178E-1,3.21E0,5.2E0,2.745382E-1,-6.617677E-2,-0E0,-6.3166924E-2,1.9E0,4.14E0,2.50435E-2,1.4194655E3,-6.2147178E-2,1.4176952E3,3.91E0,3.18E0,1.128571E-2,1.6865159E3,1.3683744E3,4.28E0,2.9357731E-2,-4.4087343E-2,1.2181259E-2,7.606804E-2,1.5062966E-2,-0E0,3.0923802E-2,-5.2183354E-3,-0E0,-5.3915348E-2,-5.241154E-2,-0E0,4.247673E-2,-9.8489225E-3,6.9297515E-2,8.232872E-3],"split_indices":[16,4,4,10,5,1,1,8,8,1,0,0,0,16,8,14,4,0,4,8,8,0,3,3,8,0,0,0,0,0,0,0,0,0,0,0,0,0,0,0,0],"split_type":[0,0,0,0,0,0,0,0,0,0,0,0,0,0,0,0,0,0,0,0,0,0,0,0,0,0,0,0,0,0,0,0,0,0,0,0,0,0,0,0,0],"sum_hessian":[2.1781421E2,8.335554E1,1.3445866E2,5.1043343E1,3.23122E1,1.0059963E1,1.243987E2,4.1097343E1,9.945997E0,2.8146181E1,4.166018E0,3.911744E0,6.1482196E0,2.139512E1,1.0300358E2,1.721885E1,2.3878496E1,3.6331334E0,6.312864E0,2.123973E1,6.9064517E0,4.801691E0,1.659343E1,9.3223145E1,9.780434E0,9.146999E0,8.071849E0,7.4061356E0,1.647236E1,3.02415E0,3.288714E0,1.4031063E1,7.208667E0,3.448163E0,3.458289E0,1.1071261E1,5.5221686E0,3.7859359E0,8.943721E1,4.115859E0,5.6645746E0],"tree_param":{"num_deleted":"0","num_feature":"18","num_nodes":"41","size_leaf_vector":"1"}},{"base_weights":[-1.7073559E-2,7.934259E-3,-3.2977656E-1,-6.1656114E-2,2.861276E-1,-6.02073E-1,1.3786988E-2,-1.6148694E-2,-4.3032885E-2,5.594277E-1,-0E0,-0E0,-7.033791E-2,-6.423628E-2,5.509874E-1,-0E0,8.3303064E-1,-3.4444187E-2,2.0288824E-1,-5.046975E-2,-1.001446E-3,2.2793908E-3,6.1617862E-2,9.168195E-3,-2.0705177E-2,7.981249E-2,3.608461E-3,4.1291293E-2,-0E0],"categories":[],"categories_nodes":[],"categories_segments":[],"categories_sizes":[],"default_left":[0,0,0,0,0,0,0,0,0,0,0,0,0,0,0,0,0,0,0,0,0,0,0,0,0,0,0,0,0],"id":22,"left_children":[1,3,5,7,9,11,-1,13,-1,15,17,-1,-1,19,21,23,25,-1,27,-1,-1,-1,-1,-1,-1,-1,-1,-1,-1],"loss_changes":[2.0014007E0,4.078326E0,3.2162733E0,2.821424E0,3.411536E0,2.2210293E0,0E0,3.5895412E0,0E0,3.99299E0,2.1808534E0,0E0,0E0,3.408639E0,3.1013775E-1,4.1381294E-1,9.047146E-1,0E0,1.2649975E0,0E0,0E0,0E0,0E0,0E0,0E0,0E0,0E0,0E0,0E0],"parents":[2147483647,0,0,1,1,2,2,3,3,4,4,5,5,7,7,9,9,10,10,13,13,14,14,15,15,16,16,18,18],"right_children":[2,4,6,8,10,12,-1,14,-1,16,18,-1,-1,20,22,24,26,-1,28,-1,-1,-1,-1,-1,-1,-1,-1,-1,-1],"split_conditions":[5.58E0,1.599056E3,1.294E1,6.080778E-1,1.6393933E3,1.5849196E3,1.3786988E-2,5.09E0,-4.3032885E-2,4.32221E1,1.6571874E3,-0E0,-7.033791E-2,9.564128E-1,1.5263252E3,2.77E0,1.706503E2,-3.4444187E-2,1.6154197E0,-5.046975E-2,-1.001446E-3,2.2793908E-3,6.1617862E-2,9.168195E-3,-2.0705177E-2,7.981249E-2,3.608461E-3,4.1291293E-2,-0E0],"split_indices":[8,3,9,10,3,3,0,9,0,13,3,0,0,6,3,9,13,0,5,0,0,0,0,0,0,0,0,0,0],"split_type":[0,0,0,0,0,0,0,0,0,0,0,0,0,0,0,0,0,0,0,0,0,0,0,0,0,0,0,0,0],"sum_hessian":[2.1210754E2,1.9524457E2,1.6862976E1,1.5454666E2,4.0697903E1,1.1966804E1,4.896172E0,1.4487135E2,9.67531E0,2.0070509E1,2.0627394E1,4.5443497E0,7.4224544E0,1.3680809E2,8.06327E0,6.3628697E0,1.3707639E1,6.092966E0,1.4534428E1,7.952019E0,1.2885606E2,4.399459E0,3.6638103E0,3.2058969E0,3.156973E0,9.848433E0,3.8592064E0,5.303312E0,9.231116E0],"tree_param":{"num_deleted":"0","num_feature":"18","num_nodes":"29","size_leaf_vector":"1"}},{"base_weights":[6.792965E-3,1.5199018E-1,-5.783237E-2,4.4965866E-1,-1.6966479E-2,-1.3490131E-1,1.6209656E-1,7.218361E-1,-0E0,-4.9348414E-2,8.405462E-2,-0E0,-4.0348184E-1,4.7048703E-1,-1.6935942E-1,6.8607554E-2,-0E0,-1.8899823E-2,1.9443545E-2,-0E0,3.2374218E-1,2.148822E-1,-1.3502844E-1,-5.705795E-1,5.42279E-2,7.730872E-1,-0E0,3.2794862E-3,-5.273211E-2,-2.1392807E-2,2.0355975E-2,4.2589594E-2,-7.077449E-4,5.2273326E-2,-0E0,-3.8338207E-2,1.0802201E-2,-5.6367118E-2,-0E0,4.086442E-2,-2.554123E-2,-0E0,7.628939E-2,-2.6862087E-2,1.932891E-2,2.278147E-2,-1.8438784E-2],"categories":[],"categories_nodes":[],"categories_segments":[],"categories_sizes":[],"default_left":[0,0,0,0,0,0,0,0,0,0,0,0,0,0,0,0,0,0,0,0,0,0,0,0,0,0,0,0,0,0,0,0,0,0,0,0,0,0,0,0,0,0,0,0,0,0,0],"id":23,"left_children":[1,3,5,7,9,11,13,15,17,-1,19,21,23,25,27,-1,-1,-1,-1,29,31,33,35,37,39,41,43,45,-1,-1,-1,-1,-1,-1,-1,-1,-1,-1,-1,-1,-1,-1,-1,-1,-1,-1,-1],"loss_changes":[2.1848671E0,4.1377153E0,2.5517063E0,3.7057476E0,3.4596314E0,3.7931232E0,4.1765027E0,1.2754221E0,8.308321E-1,0E0,1.0929539E0,2.3338618E0,3.3452935E0,3.207007E0,2.1339774E0,0E0,0E0,0E0,0E0,2.1251462E0,1.4445693E0,3.0685925E0,5.464724E0,1.8070059E0,2.2062132E0,9.454541E-1,9.8578E-1,1.0651671E0,0E0,0E0,0E0,0E0,0E0,0E0,0E0,0E0,0E0,0E0,0E0,0E0,0E0,0E0,0E0,0E0,0E0,0E0,0E0],"parents":[2147483647,0,0,1,1,2,2,3,3,4,4,5,5,6,6,7,7,8,8,10,10,11,11,12,12,13,13,14,14,19,19,20,20,21,21,22,22,23,23,24,24,25,25,26,26,27,27],"right_children":[2,4,6,8,10,12,14,16,18,-1,20,22,24,26,28,-1,-1,-1,-1,30,32,34,36,38,40,42,44,46,-1,-1,-1,-1,-1,-1,-1,-1,-1,-1,-1,-1,-1,-1,-1,-1,-1,-1,-1],"split_conditions":[1.74E0,6.3559E-3,1.6020885E3,5.028471E-1,-2.94794E1,1.5234227E3,1.63932E2,2.8389266E-1,5.42E0,-4.9348414E-2,2.42E0,3.597366E-1,7.300032E-1,1.6502434E3,1.5872857E-1,6.8607554E-2,-0E0,-1.8899823E-2,1.9443545E-2,1.96E0,2.929746E-1,1.594807E-1,3.4E0,2.21E0,1.8415514E0,3.61135E1,1.93E0,1.7309142E3,-5.273211E-2,-2.1392807E-2,2.0355975E-2,4.2589594E-2,-7.077449E-4,5.2273326E-2,-0E0,-3.8338207E-2,1.0802201E-2,-5.6367118E-2,-0E0,4.086442E-2,-2.554123E-2,-0E0,7.628939E-2,-2.6862087E-2,1.932891E-2,2.278147E-2,-1.8438784E-2],"split_indices":[16,14,3,2,13,3,13,1,7,0,15,2,14,3,2,0,0,0,0,7,11,14,7,16,5,13,7,3,0,0,0,0,0,0,0,0,0,0,0,0,0,0,0,0,0,0,0],"split_type":[0,0,0,0,0,0,0,0,0,0,0,0,0,0,0,0,0,0,0,0,0,0,0,0,0,0,0,0,0,0,0,0,0,0,0,0,0,0,0,0,0,0,0,0,0,0,0],"sum_hessian":[2.189354E2,7.136527E1,1.4757011E2,2.6780027E1,4.4585243E1,1.1321628E2,3.435384E1,1.628023E1,1.0499798E1,6.380824E0,3.8204422E1,7.903718E1,3.4179104E1,1.8924421E1,1.54294195E1,1.2684913E1,3.5953162E0,5.8829474E0,4.6168504E0,2.7066185E1,1.1138236E1,2.7342247E1,5.1694927E1,2.6277487E1,7.901617E0,1.1115728E1,7.808693E0,1.1367572E1,4.061847E0,1.4822171E1,1.2244013E1,7.954102E0,3.1841345E0,8.360507E0,1.898174E1,2.3674498E1,2.8020432E1,2.0183804E1,6.093684E0,4.4292336E0,3.4723835E0,3.4561896E0,7.6595387E0,3.4522266E0,4.3564663E0,6.90015E0,4.4674225E0],"tree_param":{"num_deleted":"0","num_feature":"18","num_nodes":"47","size_leaf_vector":"1"}},{"base_weights":[2.271003E-3,-2.1969675E-1,4.297855E-2,1.4231664E-1,-3.785584E-1,-5.7263065E-2,1.54603E-1,2.3319816E-2,-0E0,-5.738413E-1,-0E0,2.3965415E-2,-2.518992E-1,6.576719E-2,7.269883E-2,-6.386561E-2,-1.9826311E-1,2.5053753E-2,-2.1702256E-2,-2.3312148E-1,1.3921954E-1,-6.004703E-1,-2.5937207E-2,-5.201616E-1,1.4602259E-1,6.311948E-3,-3.8194623E-2,9.001814E-4,-3.456954E-2,-1.4506401E-2,1.8870063E-2,-0E0,-7.461181E-2,-5.7384036E-2,1.1742113E-2,-0E0,-6.391778E-2,6.26147E-3,5.0927147E-2],"categories":[],"categories_nodes":[],"categories_segments":[],"categories_sizes":[],"default_left":[0,0,0,0,0,0,0,0,0,0,0,0,0,0,0,0,0,0,0,0,0,0,0,0,0,0,0,0,0,0,0,0,0,0,0,0,0,0,0],"id":24,"left_children":[1,3,5,7,9,11,13,-1,-1,15,17,19,21,23,-1,-1,25,-1,-1,27,29,31,33,35,37,-1,-1,-1,-1,-1,-1,-1,-1,-1,-1,-1,-1,-1,-1],"loss_changes":[1.7927563E0,2.067852E0,2.2175314E0,2.6276326E-1,1.955889E0,1.7536064E0,5.2142973E0,0E0,0E0,4.2497158E-2,9.7024965E-1,1.9191532E0,1.8619773E0,3.8962085E0,0E0,0E0,1.2741282E0,0E0,0E0,1.3260509E0,1.668627E0,1.6710341E0,3.5559304E0,1.4910991E0,1.8476347E0,0E0,0E0,0E0,0E0,0E0,0E0,0E0,0E0,0E0,0E0,0E0,0E0,0E0,0E0],"parents":[2147483647,0,0,1,1,2,2,3,3,4,4,5,5,6,6,9,9,10,10,11,11,12,12,13,13,16,16,19,19,20,20,21,21,22,22,23,23,24,24],"right_children":[2,4,6,8,10,12,14,-1,-1,16,18,20,22,24,-1,-1,26,-1,-1,28,30,32,34,36,38,-1,-1,-1,-1,-1,-1,-1,-1,-1,-1,-1,-1,-1,-1],"split_conditions":[1.69E0,9.969109E-1,2.631579E-1,-1.845087E2,1.6154197E0,2.4669023E-1,3.61E0,2.3319816E-2,-0E0,-6.15344E1,1.706503E2,1.87E0,1.4660009E3,2.7184466E-1,7.269883E-2,-6.386561E-2,-4.38672E-2,2.5053753E-2,-2.1702256E-2,8.305589E-1,1.3973619E3,4.68E0,9.316752E-1,1.5169384E3,1.4743437E0,6.311948E-3,-3.8194623E-2,9.001814E-4,-3.456954E-2,-1.4506401E-2,1.8870063E-2,-0E0,-7.461181E-2,-5.7384036E-2,1.1742113E-2,-0E0,-6.391778E-2,6.26147E-3,5.0927147E-2],"split_indices":[15,5,11,13,5,11,8,0,0,13,13,15,4,11,0,0,14,0,0,6,4,9,5,4,6,0,0,0,0,0,0,0,0,0,0,0,0,0,0],"split_type":[0,0,0,0,0,0,0,0,0,0,0,0,0,0,0,0,0,0,0,0,0,0,0,0,0,0,0,0,0,0,0,0,0,0,0,0,0,0,0],"sum_hessian":[2.1387442E2,2.7974937E1,1.8589948E2,6.6757565E0,2.1299181E1,9.373682E1,9.216267E1,3.16038E0,3.5153763E0,1.4079296E1,7.219885E0,6.374835E1,2.9988468E1,8.5581696E1,6.580968E0,5.736775E0,8.342521E0,3.9039648E0,3.3159199E0,1.6413784E1,4.7334564E1,8.750128E0,2.123834E1,7.48829E0,7.809341E1,3.10879E0,5.233731E0,5.958429E0,1.0455356E1,8.16344E0,3.9171124E1,4.37286E0,4.3772674E0,4.141966E0,1.7096375E1,3.1308286E0,4.357461E0,7.2445244E1,5.6481614E0],"tree_param":{"num_deleted":"0","num_feature":"18","num_nodes":"39","size_leaf_vector":"1"}},{"base_weights":[1.2938754E-3,9.3715034E-2,-8.19096E-2,-0E0,3.9110857E-1,4.0695556E-2,-3.291537E-1,-1.8768033E-1,1.4945143E-1,-0E0,5.598489E-1,-2.5671741E-2,4.4581196E-1,-7.1124546E-2,-1.8278073E-1,-0E0,-7.2894745E-2,4.435268E-2,6.0600407E-2,-3.6326047E-2,2.581013E-2,6.7319334E-1,-0E0,-1.2130587E-1,3.790519E-2,7.5965645E-3,5.872763E-2,2.9980903E-2,-5.6109995E-1,-1.1225796E-2,3.8071856E-2,1.8712051E-2,-7.378958E-3,-0E0,7.087099E-2,-3.7928715E-2,-0E0,1.1295387E-2,-0E0,-3.2638025E-2,2.7299643E-2,-0E0,-5.8238752E-2],"categories":[],"categories_nodes":[],"categories_segments":[],"categories_sizes":[],"default_left":[0,0,0,0,0,0,0,0,0,0,0,0,0,0,0,0,0,0,0,0,0,0,0,0,0,0,0,0,0,0,0,0,0,0,0,0,0,0,0,0,0,0,0],"id":25,"left_children":[1,3,5,7,9,11,13,15,17,19,21,23,25,-1,27,29,-1,31,-1,-1,-1,33,-1,35,-1,37,-1,39,41,-1,-1,-1,-1,-1,-1,-1,-1,-1,-1,-1,-1,-1,-1],"loss_changes":[1.7162346E0,2.816583E0,3.6789403E0,2.4959602E0,2.0117013E0,2.4126105E0,1.857449E0,5.137576E0,2.4600272E0,1.5919096E0,9.5125055E-1,2.7581618E0,8.3152413E-1,0E0,3.4151783E0,2.2731993E0,0E0,1.4260732E0,0E0,0E0,0E0,2.4510374E0,0E0,2.3596225E0,0E0,1.0293471E-1,0E0,3.3296776E0,1.1035328E0,0E0,0E0,0E0,0E0,0E0,0E0,0E0,0E0,0E0,0E0,0E0,0E0,0E0,0E0],"parents":[2147483647,0,0,1,1,2,2,3,3,4,4,5,5,6,6,7,7,8,8,9,9,10,10,11,11,12,12,14,14,15,15,17,17,21,21,23,23,25,25,27,27,28,28],"right_children":[2,4,6,8,10,12,14,16,18,20,22,24,26,-1,28,30,-1,32,-1,-1,-1,34,-1,36,-1,38,-1,40,42,-1,-1,-1,-1,-1,-1,-1,-1,-1,-1,-1,-1,-1,-1],"split_conditions":[4.0175936E-1,2.93E0,2.5670227E-1,3.29E0,2.37E0,2.0731707E-1,1.4322299E3,3.11E0,-5.63832E1,3.7847918E-1,2.65E0,2.4E0,8.62089E1,-7.1124546E-2,4.5710376E-1,1.5564847E3,-7.2894745E-2,1.4544641E3,6.0600407E-2,-3.6326047E-2,2.581013E-2,-6.15344E1,-0E0,5.4527426E-1,3.790519E-2,1.5313346E3,5.872763E-2,4.24262E-1,1.5078561E3,-1.1225796E-2,3.8071856E-2,1.8712051E-2,-7.378958E-3,-0E0,7.087099E-2,-3.7928715E-2,-0E0,1.1295387E-2,-0E0,-3.2638025E-2,2.7299643E-2,-0E0,-5.8238752E-2],"split_indices":[0,9,2,7,7,12,3,7,13,0,7,15,13,0,0,3,0,3,0,0,0,13,0,0,0,3,0,0,3,0,0,0,0,0,0,0,0,0,0,0,0,0,0],"split_type":[0,0,0,0,0,0,0,0,0,0,0,0,0,0,0,0,0,0,0,0,0,0,0,0,0,0,0,0,0,0,0,0,0,0,0,0,0,0,0,0,0,0,0],"sum_hessian":[2.1765271E2,1.0868884E2,1.0896386E2,8.5920525E1,2.2768318E1,7.125543E1,3.7708427E1,3.5826885E1,5.009364E1,6.2621293E0,1.6506187E1,6.0713943E1,1.0541491E1,4.29595E0,3.341248E1,3.0034134E1,5.7927523E0,4.59431E1,4.1505384E0,3.1298993E0,3.13223E0,1.2898103E1,3.6080854E0,5.390866E1,6.80528E0,6.373991E0,4.1675E0,2.0872372E1,1.2540106E1,2.4282E1,5.752134E0,2.1710867E1,2.4232235E1,3.1718795E0,9.726224E0,1.2157552E1,4.175111E1,3.187687E0,3.186304E0,7.0785666E0,1.3793806E1,3.8200011E0,8.720104E0],"tree_param":{"num_deleted":"0","num_feature":"18","num_nodes":"43","size_leaf_vector":"1"}},{"base_weights":[3.3486225E-2,-2.6394078E-1,6.747898E-2,1.4731054E-2,-4.7465596E-1,7.517959E-3,2.503903E-1,-5.1680468E-2,-0E0,-5.0085645E-2,4.2332403E-2,4.0485746E-1,-1.9941121E-1,7.031365E-2,-3.5911765E-2,4.5680776E-1,-0E0,1.2796354E-2,-4.8934627E-2,-6.2593883E-3,1.2948659E-2,-0E0,4.22794E-2],"categories":[],"categories_nodes":[],"categories_segments":[],"categories_sizes":[],"default_left":[0,0,0,0,0,0,0,0,0,0,0,0,0,0,0,0,0,0,0,0,0,0,0],"id":26,"left_children":[1,3,5,-1,7,9,11,-1,-1,-1,13,15,17,19,-1,21,-1,-1,-1,-1,-1,-1,-1],"loss_changes":[1.993875E0,2.2827501E0,1.8865477E0,0E0,8.2909465E-1,2.8594291E0,3.436366E0,0E0,0E0,0E0,1.7333637E0,9.177532E-1,2.2738883E0,2.076509E0,0E0,1.2438769E0,0E0,0E0,0E0,0E0,0E0,0E0,0E0],"parents":[2147483647,0,0,1,1,2,2,4,4,5,5,6,6,10,10,11,11,12,12,13,13,15,15],"right_children":[2,4,6,-1,8,10,12,-1,-1,-1,14,16,18,20,-1,22,-1,-1,-1,-1,-1,-1,-1],"split_conditions":[1.65E0,1.4164375E3,3.29E0,1.4731054E-2,1.62E0,1.0543774E0,1.6899397E3,-5.1680468E-2,-0E0,-5.0085645E-2,1.457082E0,2.39E0,1.9293536E-1,1.4545399E3,-3.5911765E-2,7.7246785E-1,-0E0,1.2796354E-2,-4.8934627E-2,-6.2593883E-3,1.2948659E-2,-0E0,4.22794E-2],"split_indices":[15,3,7,0,15,5,4,0,0,0,6,15,11,4,0,5,0,0,0,0,0,0,0],"split_type":[0,0,0,0,0,0,0,0,0,0,0,0,0,0,0,0,0,0,0,0,0,0,0],"sum_hessian":[2.1111955E2,1.7248938E1,1.938706E2,4.0798283E0,1.3169109E1,1.5169281E2,4.21778E1,8.175961E0,4.993149E0,4.6358094E0,1.47057E2,3.319968E1,8.978121E0,1.426792E2,4.3778105E0,3.004682E1,3.1528594E0,4.154878E0,4.8232427E0,5.034604E1,9.233315E1,3.6505775E0,2.6396242E1],"tree_param":{"num_deleted":"0","num_feature":"18","num_nodes":"23","size_leaf_vector":"1"}},{"base_weights":[-0E0,-2.627925E-1,3.9512947E-2,-0E0,-4.7708374E-1,1.8587814E-1,-3.16222E-2,2.4757499E-2,-1.2426199E-1,-0E0,-5.2416094E-2,4.2256854E-2,5.1991636E-1,1.6458305E-2,-5.724443E-1,-3.8628697E-2,2.8694763E-3,-1.529146E-2,4.062602E-2,-0E0,5.747753E-2,-1.5050632E-2,4.6579693E-2,-6.907039E-2,-0E0,-9.010391E-3,4.6227545E-2,-6.6656694E-3,2.3401508E-2],"categories":[],"categories_nodes":[],"categories_segments":[],"categories_sizes":[],"default_left":[0,0,0,0,0,0,0,0,0,0,0,0,0,0,0,0,0,0,0,0,0,0,0,0,0,0,0,0,0],"id":27,"left_children":[1,3,5,7,9,11,13,-1,15,-1,-1,17,19,21,23,-1,-1,25,-1,-1,-1,27,-1,-1,-1,-1,-1,-1,-1],"loss_changes":[2.2835298E0,1.7570871E0,2.145942E0,6.8076825E-1,1.9516008E0,2.6121936E0,3.8273053E0,0E0,1.1121773E0,0E0,0E0,1.8793982E0,1.9200816E0,2.6369147E0,2.6549006E0,0E0,0E0,2.2966456E0,0E0,0E0,0E0,2.1349795E0,0E0,0E0,0E0,0E0,0E0,0E0,0E0],"parents":[2147483647,0,0,1,1,2,2,3,3,4,4,5,5,6,6,8,8,11,11,12,12,13,13,14,14,17,17,21,21],"right_children":[2,4,6,8,10,12,14,-1,16,-1,-1,18,20,22,24,-1,-1,26,-1,-1,-1,28,-1,-1,-1,-1,-1,-1,-1],"split_conditions":[2.035383E-1,7.444998E-1,2.4818626E-1,1.048E1,6.584648E-1,2.4290916E-1,1.5327545E0,2.4757499E-2,1.6919802E3,-0E0,-5.2416094E-2,2.12154E2,-5.925437E-1,4.8517683E-1,1.5994993E3,-3.8628697E-2,2.8694763E-3,2.36E0,4.062602E-2,-0E0,5.747753E-2,1.5634857E3,4.6579693E-2,-6.907039E-2,-0E0,-9.010391E-3,4.6227545E-2,-6.6656694E-3,2.3401508E-2],"split_indices":[1,6,1,9,5,1,5,0,3,0,0,13,14,0,3,0,0,16,0,0,0,3,0,0,0,0,0,0,0],"split_type":[0,0,0,0,0,0,0,0,0,0,0,0,0,0,0,0,0,0,0,0,0,0,0,0,0,0,0,0,0],"sum_hessian":[2.149306E2,2.6766798E1,1.881638E2,1.231876E1,1.4448037E1,6.5083E1,1.230808E2,3.33786E0,8.9809E0,3.18116E0,1.1266877E1,4.9183147E1,1.5899849E1,1.1311471E2,9.966096E0,3.4558797E0,5.5250196E0,4.3582386E1,5.600764E0,4.806725E0,1.1093123E1,1.07317505E2,5.797201E0,6.8219485E0,3.1441472E0,4.0278526E1,3.3038588E0,9.167761E1,1.5639897E1],"tree_param":{"num_deleted":"0","num_feature":"18","num_nodes":"29","size_leaf_vector":"1"}},{"base_weights":[-1.2777714E-2,-3.4771466E-1,1.4580771E-2,-5.472048E-1,4.97688E-3,4.4140017E-1,-7.4016615E-3,-0E0,-6.126661E-2,-0E0,5.8093097E-2,-2.9442686E-1,2.083169E-2,-3.3939503E-2,-5.5047564E-2,-1.4447117E-2,3.5460997E-1,-3.3065658E-2,1.1941349E-2,7.432797E-3,-1.2296826E-2,6.30071E-2,-3.495415E-3],"categories":[],"categories_nodes":[],"categories_segments":[],"categories_sizes":[],"default_left":[0,0,0,0,0,0,0,0,0,0,0,0,0,0,0,0,0,0,0,0,0,0,0],"id":28,"left_children":[1,3,5,7,-1,9,11,-1,-1,-1,-1,13,15,17,-1,19,21,-1,-1,-1,-1,-1,-1],"loss_changes":[2.2779627E0,2.0891798E0,2.2640154E0,1.5130949E0,0E0,1.8922305E0,1.7815456E0,0E0,0E0,0E0,0E0,1.2650827E0,2.313763E0,1.4695063E0,0E0,2.3321247E0,4.0422096E0,0E0,0E0,0E0,0E0,0E0,0E0],"parents":[2147483647,0,0,1,1,2,2,3,3,5,5,6,6,11,11,12,12,13,13,15,15,16,16],"right_children":[2,4,6,8,-1,10,12,-1,-1,-1,-1,14,16,18,-1,20,22,-1,-1,-1,-1,-1,-1],"split_conditions":[1.3973619E3,9.92496E-1,1.4176952E3,1.3119352E-1,4.97688E-3,1.484103E3,1.9202378E-1,-0E0,-6.126661E-2,-0E0,5.8093097E-2,2.25E0,5.6E0,1.4796852E3,-5.5047564E-2,1.92E0,6.51E0,-3.3065658E-2,1.1941349E-2,7.432797E-3,-1.2296826E-2,6.30071E-2,-3.495415E-3],"split_indices":[4,6,4,2,0,3,11,0,0,0,0,15,9,4,0,16,9,0,0,0,0,0,0],"split_type":[0,0,0,0,0,0,0,0,0,0,0,0,0,0,0,0,0,0,0,0,0,0,0],"sum_hessian":[2.0913297E2,1.6784227E1,1.9234874E2,1.2480358E1,4.3038697E0,9.780392E0,1.8256834E2,4.507643E0,7.972715E0,3.8392894E0,5.9411025E0,1.7833391E1,1.6473495E2,1.3568105E1,4.265287E0,1.4800858E2,1.6726385E1,5.37789E0,8.190214E0,7.9899574E1,6.8109E1,8.280698E0,8.445686E0],"tree_param":{"num_deleted":"0","num_feature":"18","num_nodes":"23","size_leaf_vector":"1"}},{"base_weights":[-0E0,1.5354437E-1,-5.7598215E-2,2.8250277E-1,-3.2007754E-2,-2.964335E-1,-1.2206418E-2,3.8938725E-1,-0E0,2.3562023E-2,-2.0374261E-1,9.162464E-2,-6.57453E-1,3.767848E-2,-5.0875746E-2,5.6417143E-1,1.3610022E-1,1.3574879E-2,-3.050447E-2,-4.227874E-2,-0E0,4.675419E-2,-1.4658967E-2,-6.496609E-2,-7.302415E-3,2.5784594E-1,-8.27832E-2,5.6595486E-2,-0E0,3.3268E-2,-2.7805196E-2,2.0548506E-2,-2.1643013E-2,4.5325294E-2,-0E0,-4.0379982E-2,-1.7626887E-3],"categories":[],"categories_nodes":[],"categories_segments":[],"categories_sizes":[],"default_left":[0,0,0,0,0,0,0,0,0,0,0,0,0,0,0,0,0,0,0,0,0,0,0,0,0,0,0,0,0,0,0,0,0,0,0,0,0],"id":29,"left_children":[1,3,5,7,9,11,13,15,17,-1,19,21,23,-1,25,27,29,-1,-1,-1,31,-1,-1,-1,-1,33,35,-1,-1,-1,-1,-1,-1,-1,-1,-1,-1],"loss_changes":[1.972327E0,1.7554525E0,1.342103E0,1.5701733E0,1.3804295E0,3.603075E0,2.133676E0,5.37704E-1,1.012135E0,0E0,1.7205462E0,2.0314562E0,3.0884266E-2,0E0,1.1274854E0,8.664508E-1,2.7666137E0,0E0,0E0,0E0,9.6071374E-1,0E0,0E0,0E0,0E0,1.0360825E0,2.5364912E0,0E0,0E0,0E0,0E0,0E0,0E0,0E0,0E0,0E0,0E0],"parents":[2147483647,0,0,1,1,2,2,3,3,4,4,5,5,6,6,7,7,8,8,10,10,11,11,12,12,14,14,15,15,16,16,20,20,25,25,26,26],"right_children":[2,4,6,8,10,12,14,16,18,-1,20,22,24,-1,26,28,30,-1,-1,-1,32,-1,-1,-1,-1,34,36,-1,-1,-1,-1,-1,-1,-1,-1,-1,-1],"split_conditions":[3.41E0,1.5277429E3,3.51E0,2.8756937E-1,-3.673617E-1,2.653666E-1,3.55E0,2.50435E-2,1.1124365E0,2.3562023E-2,-8.86922E-2,1.88E0,3.47E0,3.767848E-2,8.034263E-2,3.7297237E-1,2.35E0,1.3574879E-2,-3.050447E-2,-4.227874E-2,1.6150544E3,4.675419E-2,-1.4658967E-2,-6.496609E-2,-7.302415E-3,1.82E0,1.4E0,5.6595486E-2,-0E0,3.3268E-2,-2.7805196E-2,2.0548506E-2,-2.1643013E-2,4.5325294E-2,-0E0,-4.0379982E-2,-1.7626887E-3],"split_indices":[8,4,8,1,14,1,8,14,5,0,14,16,8,0,12,12,7,0,0,0,4,0,0,0,0,16,7,0,0,0,0,0,0,0,0,0,0],"split_type":[0,0,0,0,0,0,0,0,0,0,0,0,0,0,0,0,0,0,0,0,0,0,0,0,0,0,0,0,0,0,0,0,0,0,0,0,0],"sum_hessian":[2.110719E2,6.0138145E1,1.5093375E2,3.8042793E1,2.2095352E1,1.8819708E1,1.3211404E2,2.9432692E1,8.610101E0,5.115644E0,1.6979708E1,8.454492E0,1.0365215E1,6.216529E0,1.25897514E2,1.3626588E1,1.5806104E1,5.043691E0,3.56641E0,6.981213E0,9.998495E0,3.5232644E0,4.931227E0,6.0720325E0,4.2931824E0,7.530748E0,1.1836677E2,9.669336E0,3.9572518E0,1.1501598E1,4.3045053E0,6.8483663E0,3.1501288E0,3.2016957E0,4.3290524E0,1.0985197E1,1.0738157E2],"tree_param":{"num_deleted":"0","num_feature":"18","num_nodes":"37","size_leaf_vector":"1"}},{"base_weights":[-1.571805E-2,-7.723771E-2,1.6178223E-1,-3.3101887E-2,-7.459869E-2,6.7974985E-1,-0E0,-5.1917386E-1,6.285955E-3,6.585279E-2,-0E0,8.075788E-2,-3.5752925E-1,-0E0,-5.019626E-2,-7.5240456E-2,1.662081E-1,-0E0,3.863215E-1,-5.4023325E-2,-0E0,-3.977252E-2,-0E0,2.6156155E-2,-1.0431973E-2,8.216551E-3,-2.4237836E-2,-0E0,4.255724E-2],"categories":[],"categories_nodes":[],"categories_segments":[],"categories_sizes":[],"default_left":[0,0,0,0,0,0,0,0,0,0,0,0,0,0,0,0,0,0,0,0,0,0,0,0,0,0,0,0,0],"id":30,"left_children":[1,3,5,7,-1,9,11,13,15,-1,-1,17,19,-1,-1,21,23,25,27,-1,-1,-1,-1,-1,-1,-1,-1,-1,-1],"loss_changes":[2.291531E0,5.2170525E0,4.6955824E0,3.5921338E0,0E0,7.1480227E-1,1.3769327E0,5.3825235E-1,2.0525856E0,0E0,0E0,1.1555058E0,1.4601458E0,0E0,0E0,3.2988145E0,2.9002523E0,1.0547357E0,2.2261047E-1,0E0,0E0,0E0,0E0,0E0,0E0,0E0,0E0,0E0,0E0],"parents":[2147483647,0,0,1,1,2,2,3,3,5,5,6,6,7,7,8,8,11,11,12,12,15,15,16,16,17,17,18,18],"right_children":[2,4,6,8,-1,10,12,14,16,-1,-1,18,20,-1,-1,22,24,26,28,-1,-1,-1,-1,-1,-1,-1,-1,-1,-1],"split_conditions":[3.29E0,3.11E0,1.5792191E3,1.66E0,-7.459869E-2,3.83E0,1.5234227E3,1.4500562E3,3.2585925E-1,6.585279E-2,-0E0,-1.531076E2,1.5595176E3,-0E0,-5.019626E-2,3.2749E0,4.0032634E-1,1.4544641E3,1.4881523E3,-5.4023325E-2,-0E0,-3.977252E-2,-0E0,2.6156155E-2,-1.0431973E-2,8.216551E-3,-2.4237836E-2,-0E0,4.255724E-2],"split_indices":[7,7,4,15,0,8,3,3,2,0,0,13,3,0,0,13,2,3,3,0,0,0,0,0,0,0,0,0,0],"split_type":[0,0,0,0,0,0,0,0,0,0,0,0,0,0,0,0,0,0,0,0,0,0,0,0,0,0,0,0,0],"sum_hessian":[2.1330556E2,1.6342705E2,4.987852E1,1.5849445E2,4.932601E0,1.1100951E1,3.877757E1,1.1957492E1,1.4653694E2,7.9886417E0,3.1123097E0,3.1726484E1,7.051083E0,3.0344474E0,8.923045E0,9.361774E1,5.2919212E1,2.4510294E1,7.216192E0,3.7390623E0,3.3120208E0,1.3536684E1,8.008105E1,3.6373684E1,1.6545532E1,1.722973E1,7.280563E0,3.5690303E0,3.6471612E0],"tree_param":{"num_deleted":"0","num_feature":"18","num_nodes":"29","size_leaf_vector":"1"}}]},"name":"gbtree"},"learner_model_param":{"base_score":"[4.742451E-1]","boost_from_average":"1","num_class":"0","num_feature":"18","num_target":"1"},"objective":{"name":"binary:logistic","reg_loss_param":{"scale_pos_weight":"1"}}},"version":[3,2,0]}